SVM-light Version V6.02
0 # kernel type
3 # kernel parameter -d 
1 # kernel parameter -g 
1 # kernel parameter -s 
1 # kernel parameter -r 
empty# kernel parameter -u 
744 # highest feature index 
12700 # number of training documents 
535 # number of support vectors plus 1 
0.42969613 # threshold b, each following line is a SV (starting with alpha*y)
2.1735599739196094e-007 67:170 68:114 94:29 95:198 96:255 97:198 123:29 124:198 125:255 126:86 153:255 154:226 155:29 181:141 182:255 183:198 210:255 211:255 238:170 239:255 266:141 267:255 294:86 295:255 296:86 322:86 323:255 324:57 350:86 351:255 352:57 375:86 376:255 377:226 378:198 379:255 380:29 403:226 404:255 405:170 406:255 407:255 408:226 409:29 430:57 431:255 432:114 434:29 435:255 436:255 437:226 438:29 458:86 459:255 460:86 462:114 463:255 464:255 465:255 466:226 467:114 486:141 487:255 488:57 490:170 491:255 492:86 493:86 494:226 495:255 496:198 497:29 514:170 515:255 518:226 519:170 522:29 523:170 524:255 525:255 526:198 527:86 542:170 543:255 544:29 545:141 546:255 547:57 552:57 553:86 570:57 571:255 572:198 573:255 574:114 599:141 600:198 601:114 #
-2.1735599739196094e-007 129:174 130:209 156:57 157:254 158:234 184:78 185:254 186:171 212:78 213:254 214:113 240:123 241:253 242:56 267:40 268:242 269:171 295:93 296:254 297:164 323:177 324:254 325:54 350:49 351:248 352:197 353:1 378:172 379:254 380:101 405:52 406:248 407:200 408:3 432:37 433:224 434:241 435:65 459:5 460:179 461:254 462:177 487:19 488:254 489:240 490:53 514:1 515:135 516:254 517:149 542:51 543:254 544:242 545:29 570:232 571:254 572:186 597:40 598:251 599:254 600:102 625:96 626:254 627:250 628:47 653:154 654:255 655:212 #
2.1735599739196094e-007 156:34 157:42 158:118 159:200 160:214 161:110 162:12 182:7 183:109 184:247 185:253 186:254 187:253 188:253 189:253 190:223 210:35 211:253 212:253 213:253 214:214 215:213 216:241 217:253 218:253 237:46 238:222 239:253 240:185 241:58 243:46 244:205 245:253 246:253 264:23 265:217 266:254 267:205 268:17 269:59 270:217 271:254 272:254 273:254 274:231 292:98 293:254 294:253 295:241 296:220 297:253 298:211 299:190 300:253 301:250 302:106 320:68 321:223 322:253 323:253 324:210 325:100 327:147 328:253 329:213 349:35 350:79 351:49 352:9 354:85 355:235 356:240 357:68 381:114 382:231 383:253 384:137 400:14 401:59 402:59 403:59 404:59 405:23 408:70 409:231 410:255 411:174 425:7 426:35 427:192 428:224 429:253 430:253 431:253 432:253 433:207 434:110 435:50 436:243 437:253 438:151 439:21 453:109 454:253 455:253 456:175 457:92 458:78 459:78 460:182 461:254 462:253 463:253 464:253 465:154 480:124 481:247 482:216 483:79 488:23 489:216 490:253 491:253 492:216 493:5 507:83 508:244 509:222 510:34 515:16 516:195 517:254 518:253 519:253 520:229 521:23 535:217 536:241 537:30 541:28 542:127 543:246 544:254 545:241 546:125 547:254 548:244 549:45 563:246 564:235 565:20 566:35 567:118 568:140 569:232 570:253 571:242 572:121 573:30 574:28 575:253 576:216 577:5 591:156 592:253 593:253 594:253 595:253 596:254 597:253 598:168 599:36 602:118 603:253 604:240 605:40 619:35 620:161 621:213 622:213 623:213 624:117 625:34 626:6 630:17 631:117 632:23 #
-2.1735599739196094e-007 175:26 176:191 177:50 178:63 186:154 187:50 188:255 189:206 190:88 203:182 204:204 205:237 206:140 213:98 214:243 215:237 216:253 217:252 218:195 231:43 232:25 233:133 234:31 240:19 241:209 242:252 243:252 244:228 245:148 246:43 268:85 269:252 270:252 271:252 272:47 296:85 297:252 298:252 299:252 324:147 325:253 326:253 327:190 351:147 352:249 353:252 354:102 355:12 378:32 379:253 380:252 381:239 382:65 405:35 406:215 407:253 408:242 409:96 433:169 434:252 435:253 436:167 460:26 461:207 462:253 463:255 464:27 487:29 488:200 489:252 490:252 491:27 492:3 515:194 516:252 517:245 518:118 542:92 543:243 544:252 545:129 570:253 571:252 572:220 573:37 596:13 597:191 598:255 599:215 600:31 624:76 625:252 626:253 627:167 651:13 652:187 653:252 654:228 655:52 679:57 680:252 681:252 682:47 707:57 708:252 709:173 #
-2.1735599739196094e-007 147:68 158:108 159:254 186:207 187:253 213:5 214:212 215:168 241:80 242:253 243:69 269:198 270:247 271:50 296:64 297:251 298:213 324:221 325:253 326:62 351:68 352:254 353:185 354:13 378:15 379:229 380:255 381:23 406:74 407:253 408:140 409:2 433:47 434:228 435:244 436:17 461:172 462:253 463:128 488:95 489:254 490:205 515:17 516:212 517:244 518:79 543:134 544:254 545:156 570:51 571:234 572:203 573:6 598:141 599:228 600:68 625:93 626:249 627:143 653:147 654:225 655:13 681:230 682:104 #
2.1735599739196094e-007 128:110 129:150 130:149 131:47 154:73 155:217 156:253 157:252 158:252 159:232 181:156 182:232 183:231 184:72 185:227 186:252 187:252 207:1 208:145 209:237 210:231 211:46 212:1 213:217 214:252 215:252 235:144 236:253 237:158 238:41 240:109 241:252 242:252 243:108 262:11 263:175 264:222 265:25 268:150 269:252 270:220 271:15 290:11 291:154 292:41 294:6 295:120 296:253 297:252 298:112 322:37 323:252 324:253 325:252 326:71 350:99 351:253 352:255 353:119 377:187 378:242 379:252 380:159 381:5 404:16 405:222 406:252 407:252 408:125 432:191 433:252 434:252 435:168 459:145 460:255 461:253 462:217 486:11 487:175 488:253 489:231 490:71 513:53 514:191 515:252 516:253 517:158 541:73 542:252 543:252 544:253 545:35 569:73 570:253 571:253 572:192 573:109 574:109 575:109 576:63 595:1 596:134 597:227 598:252 599:252 600:253 601:252 602:252 603:252 604:238 605:217 606:114 607:31 623:1 624:231 625:252 626:252 627:252 628:253 629:241 630:215 631:215 632:232 633:252 634:252 635:190 652:47 653:232 654:231 655:108 656:108 657:77 660:47 661:108 662:108 663:46 #
2.1735599739196094e-007 44:178 45:71 72:223 73:174 100:223 101:174 128:223 129:174 156:223 157:174 184:223 185:175 211:15 212:232 213:174 239:39 240:248 241:174 267:48 268:254 269:129 295:48 296:254 297:95 323:128 324:231 325:10 350:4 351:168 352:190 378:32 379:254 380:150 406:77 407:254 408:41 430:65 431:125 432:159 433:159 434:200 435:239 436:22 455:5 456:150 457:235 458:254 459:241 460:239 461:215 462:254 463:254 464:215 465:16 483:139 484:248 485:83 486:63 487:8 489:96 490:240 491:108 492:250 493:174 511:120 512:252 513:52 516:95 517:255 518:207 520:208 521:189 539:10 540:210 541:220 542:143 543:188 544:252 545:176 546:18 548:143 549:254 550:25 568:46 569:184 570:254 571:209 572:149 573:5 576:29 577:70 #
2.1735599739196094e-007 125:44 126:156 127:198 128:157 129:45 151:44 152:201 153:253 154:254 155:254 156:254 157:253 158:82 178:64 179:243 180:214 181:90 182:8 183:8 184:71 185:254 186:142 206:200 207:173 208:16 212:118 213:254 214:119 234:97 235:2 240:122 241:254 242:56 262:8 267:10 268:212 269:206 270:5 295:118 296:254 297:137 323:143 324:236 325:34 350:40 351:234 352:145 377:9 378:180 379:235 380:36 405:120 406:254 407:143 433:175 434:234 435:39 460:82 461:248 462:142 487:34 488:219 489:250 490:54 515:150 516:254 517:227 518:61 542:31 543:240 544:254 545:254 546:229 547:18 551:2 552:11 570:151 571:254 572:230 573:207 574:254 575:141 576:14 577:14 578:52 579:171 580:150 597:28 598:241 599:253 600:83 601:55 602:233 603:253 604:255 605:254 606:254 607:211 608:65 625:151 626:254 627:136 631:108 632:163 633:163 634:126 635:19 653:151 654:184 655:9 #
-2.1735599739196094e-007 100:13 101:204 102:84 127:19 128:194 129:222 130:65 155:172 156:252 157:25 182:76 183:222 184:102 209:41 210:253 211:156 237:216 238:189 239:19 265:253 266:84 292:51 293:253 294:84 320:126 321:251 322:75 347:19 348:231 349:125 375:85 376:214 377:38 403:85 404:190 405:63 430:7 431:154 432:253 433:255 434:84 458:44 459:240 460:252 461:234 462:28 487:110 488:252 489:225 515:10 516:78 517:250 518:75 545:242 546:153 547:7 573:66 574:252 575:149 576:57 601:7 602:187 603:252 604:252 605:198 606:122 607:19 630:19 631:116 632:139 633:153 634:151 635:6 #
-2.1735599739196094e-007 129:102 130:234 131:86 156:30 157:229 158:253 159:212 184:47 185:253 186:253 187:222 212:141 213:253 214:253 215:137 239:22 240:245 241:253 242:253 243:86 267:139 268:254 269:254 270:193 271:11 295:160 296:253 297:253 298:46 322:32 323:254 324:253 325:234 326:33 350:211 351:254 352:236 353:65 377:137 378:251 379:254 380:207 404:70 405:254 406:254 407:254 408:84 431:9 432:156 433:253 434:253 435:157 459:131 460:253 461:253 462:222 463:32 486:9 487:195 488:253 489:253 490:96 514:181 515:253 516:253 517:253 518:23 541:11 542:203 543:254 544:254 545:204 546:11 569:116 570:254 571:253 572:253 573:88 597:32 598:255 599:253 600:253 601:46 626:212 627:253 628:253 629:46 654:139 655:253 656:190 657:4 #
-2.1735599739196094e-007 132:65 133:166 134:128 135:40 147:17 148:47 149:131 150:12 158:22 159:85 160:234 161:253 162:253 163:99 174:86 175:185 176:253 177:172 178:6 185:9 186:195 187:253 188:253 189:253 190:222 191:42 201:29 202:211 203:253 204:239 205:73 211:46 212:135 213:247 214:253 215:253 216:253 217:253 218:49 230:125 231:252 232:220 233:18 237:36 238:147 239:222 240:253 241:253 242:253 243:253 244:253 245:236 246:38 259:247 260:253 261:190 262:55 263:139 264:139 265:243 266:253 267:253 268:253 269:168 270:253 271:253 272:249 273:66 287:71 288:181 289:253 290:244 291:253 292:253 293:253 294:193 295:168 296:32 297:72 298:253 299:253 300:100 316:11 317:68 318:214 319:203 320:68 321:68 322:21 324:9 325:180 326:253 327:245 328:81 352:70 353:253 354:253 355:191 380:117 381:253 382:218 383:39 407:12 408:226 409:253 410:137 434:12 435:186 436:253 437:253 438:137 462:24 463:253 464:253 465:197 466:16 490:127 491:253 492:249 493:79 518:177 519:253 520:183 545:104 546:242 547:253 548:183 565:7 566:8 567:8 568:8 569:93 570:162 571:162 572:162 573:245 574:253 575:253 576:228 577:162 578:162 579:125 580:8 581:8 582:2 592:109 593:223 594:253 595:253 596:253 597:253 598:253 599:253 600:253 601:253 602:253 603:253 604:253 605:253 606:253 607:253 608:253 609:253 610:45 620:255 621:253 622:253 623:253 624:253 625:253 626:253 627:253 628:253 629:253 630:253 631:253 632:205 633:199 634:199 635:199 636:101 637:45 638:8 648:100 649:99 650:99 651:99 652:99 653:99 654:99 655:99 656:179 657:253 658:145 659:99 660:12 #
-2.1735599739196094e-007 68:15 69:245 70:59 96:126 97:254 98:219 99:11 124:150 125:254 126:254 127:102 151:114 152:252 153:254 154:254 155:162 177:26 178:131 179:249 180:254 181:254 182:254 183:119 202:8 203:179 204:226 205:234 206:254 207:254 208:254 209:254 210:254 211:195 230:18 231:254 232:254 233:254 234:254 235:254 236:254 237:254 238:254 239:195 258:18 259:254 260:254 261:254 262:254 263:254 264:243 265:254 266:254 267:195 286:15 287:238 288:254 289:254 290:220 291:163 292:51 293:184 294:254 295:233 296:37 315:119 316:139 317:107 318:14 321:60 322:254 323:255 324:87 349:17 350:226 351:254 352:177 378:46 379:226 380:242 381:169 382:9 407:126 408:254 409:254 410:76 435:2 436:192 437:254 438:252 439:72 456:21 457:119 458:108 459:30 460:30 461:28 464:92 465:254 466:254 467:250 468:62 483:7 484:188 485:254 486:254 487:254 488:254 489:246 490:166 491:166 492:234 493:254 494:254 495:254 496:203 497:166 498:81 499:33 511:27 512:233 513:254 514:254 515:254 516:254 517:254 518:254 519:254 520:254 521:254 522:254 523:254 524:254 525:254 526:254 527:232 528:112 540:172 541:254 542:254 543:254 544:254 545:254 546:254 547:254 548:254 549:254 550:254 551:254 552:254 553:254 554:254 555:254 556:153 568:24 569:152 570:172 571:243 572:254 573:254 574:254 575:254 576:254 577:254 578:254 579:254 580:254 581:254 582:254 583:221 584:93 597:5 598:4 599:15 600:20 601:135 602:135 603:135 604:172 605:154 606:135 607:135 608:205 609:254 610:168 611:36 #
-2.1735599739196094e-007 131:85 132:181 133:58 157:77 158:199 159:252 160:254 161:245 175:151 176:155 183:21 184:132 185:250 186:254 187:254 188:254 189:190 202:44 203:240 204:109 209:79 210:132 211:239 212:254 213:254 214:254 215:254 216:249 217:69 230:106 231:254 232:185 233:99 234:99 235:99 236:200 237:248 238:254 239:254 240:188 241:72 242:167 243:254 244:241 258:68 259:245 260:254 261:254 262:254 263:254 264:254 265:254 266:236 267:139 268:11 269:12 270:192 271:254 272:194 287:35 288:153 289:198 290:228 291:169 292:135 293:39 294:31 297:33 298:254 299:238 300:17 317:15 318:31 325:141 326:254 327:127 352:69 353:236 354:247 355:75 380:170 381:254 382:194 407:11 408:190 409:247 410:75 435:140 436:254 437:222 462:10 463:191 464:254 465:130 490:53 491:254 492:248 493:77 518:137 519:254 520:215 545:51 546:227 547:254 548:151 549:27 550:27 551:27 552:25 564:10 565:20 566:20 567:71 568:151 569:151 570:151 571:151 572:151 573:228 574:254 575:254 576:254 577:254 578:255 579:254 580:241 592:192 593:254 594:254 595:254 596:254 597:254 598:254 599:254 600:254 601:254 602:254 603:254 604:252 605:241 606:241 607:163 608:105 620:243 621:248 622:248 623:248 624:248 625:248 626:248 627:248 628:250 629:254 630:226 631:117 632:99 656:32 657:221 658:134 #
-2.1735599739196094e-007 97:10 98:97 99:218 100:164 101:18 117:50 118:11 121:8 122:16 123:2 124:20 125:169 126:254 127:254 128:254 129:160 145:194 146:218 147:176 148:176 149:206 150:237 151:182 152:254 153:254 154:254 155:254 156:254 157:145 173:132 174:248 175:254 176:254 177:254 178:254 179:254 180:254 181:202 182:79 183:164 184:254 185:130 202:95 203:155 204:171 205:216 206:156 207:148 208:58 209:5 211:156 212:254 213:175 239:60 240:254 241:254 242:19 267:59 268:254 269:254 270:19 295:59 296:254 297:254 298:57 323:112 324:254 325:254 326:19 351:156 352:254 353:223 354:12 379:157 380:254 381:176 407:240 408:254 409:175 435:254 436:254 437:145 463:164 464:254 465:130 491:156 492:254 493:100 519:60 520:254 521:176 545:19 546:20 547:149 548:254 549:242 550:125 551:118 552:119 553:42 554:118 555:24 566:37 567:24 568:73 569:79 570:177 571:176 572:176 573:248 574:254 575:254 576:254 577:254 578:254 579:254 580:254 581:254 582:254 583:242 584:71 593:236 594:244 595:241 596:252 597:254 598:255 599:254 600:254 601:217 602:214 603:215 604:248 605:254 606:179 607:117 608:118 609:110 610:87 611:207 612:222 621:217 622:254 623:254 624:254 625:254 626:194 627:155 628:88 629:5 632:57 633:155 634:72 640:23 #
-2.1735599739196094e-007 96:2 97:55 98:255 99:133 100:5 124:44 125:253 126:253 127:253 128:222 129:30 152:19 153:208 154:253 155:253 156:253 157:55 179:4 180:25 181:181 182:253 183:253 184:253 185:116 202:20 203:149 204:14 206:20 207:125 208:253 209:253 210:253 211:253 212:253 213:55 230:130 231:253 232:201 233:101 234:218 235:253 236:253 237:253 238:253 239:253 240:253 241:55 258:130 259:253 260:253 261:253 262:253 263:253 264:253 265:253 266:253 267:253 268:253 269:55 286:215 287:253 288:253 289:253 290:253 291:253 292:253 293:253 294:253 295:253 296:253 297:140 314:227 315:253 316:253 317:253 318:253 319:253 320:253 321:253 322:253 323:253 324:253 325:151 342:130 343:253 344:249 345:228 346:215 347:113 348:68 349:195 350:253 351:253 352:253 353:86 370:35 371:185 372:210 373:65 374:24 377:67 378:233 379:253 380:253 381:235 382:71 400:143 401:202 406:180 407:253 408:253 409:253 410:172 427:11 428:192 429:228 434:140 435:253 436:253 437:253 438:198 439:14 455:3 456:22 457:39 462:10 463:155 464:253 465:253 466:253 467:145 491:63 492:253 493:253 494:253 495:166 519:38 520:229 521:253 522:253 523:166 524:86 525:12 541:11 542:93 544:19 545:106 546:194 547:230 548:248 549:253 550:253 551:245 552:250 553:184 554:218 555:175 556:106 557:3 569:80 570:251 571:236 572:239 573:253 574:253 575:253 576:253 577:253 578:253 579:253 580:253 581:253 582:253 583:253 584:253 585:60 597:149 598:253 599:253 600:253 601:253 602:253 603:253 604:253 605:253 606:253 607:253 608:253 609:253 610:253 611:253 612:253 613:248 625:16 626:129 627:129 628:129 629:129 630:129 631:129 632:129 633:129 634:129 635:129 636:129 637:129 638:129 639:129 640:129 641:129 #
2.1735599739196094e-007 233:43 234:38 235:65 236:16 258:18 259:107 260:204 261:240 262:236 263:254 264:222 265:212 266:141 267:18 286:238 287:254 288:215 289:141 290:107 291:107 292:107 293:116 294:223 295:254 296:125 314:37 315:63 316:5 322:64 323:253 324:212 350:161 351:253 352:212 377:15 378:226 379:253 380:141 404:36 405:163 406:253 407:209 408:18 431:25 432:228 433:254 434:255 435:130 459:43 460:253 461:253 462:126 463:11 487:4 488:187 489:253 490:169 491:39 492:22 493:6 516:29 517:181 518:232 519:253 520:254 521:190 522:170 523:169 524:82 525:27 546:28 547:86 548:148 549:147 550:245 551:253 552:253 553:230 554:212 555:115 556:36 582:36 583:107 584:150 585:107 #
2.1735599739196094e-007 259:105 260:181 261:181 262:181 263:149 264:97 265:78 286:157 287:254 288:254 289:254 290:254 291:255 292:254 293:254 294:182 295:73 314:182 315:253 316:240 317:113 318:18 319:50 320:102 321:108 322:222 323:247 324:53 342:37 343:145 344:203 345:27 350:90 351:253 352:136 378:147 379:253 380:174 405:59 406:238 407:253 408:91 432:88 433:241 434:254 435:169 459:101 460:252 461:253 462:203 463:31 487:37 488:244 489:253 490:54 497:14 498:34 499:69 500:50 501:204 516:122 517:250 518:210 519:134 520:110 521:90 522:64 523:109 524:173 525:219 526:249 527:224 528:137 529:35 545:75 546:201 547:253 548:254 549:253 550:253 551:253 552:220 553:136 554:72 555:11 576:59 577:39 578:33 #
2.1735599739196094e-007 121:102 122:152 123:152 124:173 125:31 149:102 150:253 151:252 152:253 153:192 154:82 177:41 178:142 179:61 180:62 181:203 182:254 183:131 209:20 210:213 211:252 212:41 238:51 239:253 240:214 241:10 266:51 267:252 268:253 269:50 294:51 295:253 296:254 297:50 322:51 323:252 324:253 325:50 350:132 351:253 352:183 377:82 378:253 379:252 380:102 405:102 406:254 407:253 433:183 434:253 435:252 460:72 461:253 462:254 463:131 488:152 489:252 490:213 491:10 516:152 517:253 518:203 544:152 545:252 546:162 572:152 573:253 574:123 600:152 601:252 602:243 603:162 604:41 629:142 630:255 631:253 632:255 633:131 634:103 657:20 658:151 659:232 660:253 661:130 662:20 #
2.1735599739196094e-007 204:13 205:33 206:33 207:7 231:47 232:224 233:254 234:254 235:214 236:94 237:19 259:159 260:254 261:225 262:123 263:197 264:254 265:232 266:92 267:4 287:217 288:194 289:19 291:6 292:49 293:191 294:254 295:123 296:2 315:188 316:116 321:32 322:192 323:254 324:104 350:148 351:254 352:249 353:24 378:148 379:254 380:254 381:56 405:98 406:247 407:255 408:223 432:100 433:244 434:254 435:249 436:58 459:100 460:243 461:254 462:247 463:83 468:20 469:25 470:68 471:81 472:107 473:107 474:107 486:90 487:243 488:254 489:254 490:164 491:116 492:116 493:144 494:197 495:197 496:241 497:254 498:226 499:221 500:221 501:144 502:86 514:102 515:254 516:254 517:254 518:254 519:254 520:254 521:240 522:213 523:178 524:130 525:65 526:8 542:6 543:146 544:230 545:227 546:156 547:123 548:43 549:27 572:17 573:15 #
2.1735599739196094e-007 66:86 67:170 94:29 95:255 96:141 123:170 124:255 125:86 152:198 153:226 154:29 180:86 181:255 182:86 209:198 210:170 237:114 238:255 239:57 265:29 266:255 267:86 294:170 295:114 322:170 323:226 350:170 351:255 378:170 379:255 380:57 406:141 407:255 408:86 434:29 435:255 436:86 460:29 461:86 462:114 463:255 464:29 487:114 488:255 489:255 490:255 491:255 492:198 493:141 494:57 515:226 516:226 517:86 518:141 519:255 520:170 521:114 522:114 523:57 543:255 544:141 546:114 547:198 571:198 572:255 573:170 574:226 575:141 599:57 600:226 601:255 602:226 #
-2.1735599739196094e-007 191:70 218:80 219:235 245:73 246:247 247:254 272:12 273:169 274:254 275:116 298:23 299:140 300:166 301:254 302:123 303:41 324:7 325:141 326:235 327:254 328:239 329:92 330:2 351:62 352:166 353:254 354:254 355:254 356:95 377:27 378:89 379:250 380:254 381:254 382:187 383:87 384:1 403:3 404:9 405:195 406:254 407:254 408:254 409:171 410:16 431:130 432:254 433:254 434:254 435:216 436:140 457:38 458:190 459:249 460:254 461:246 462:224 463:40 484:57 485:143 486:254 487:254 488:254 489:97 511:54 512:230 513:254 514:254 515:174 516:49 517:2 537:9 538:132 539:227 540:254 541:254 542:181 543:12 564:166 565:167 566:197 567:197 568:197 569:164 570:15 #
-2.1735599739196094e-007 155:6 156:122 157:171 158:19 177:74 178:191 179:50 183:131 184:254 185:254 186:75 205:37 206:248 207:227 208:121 209:121 210:212 211:248 212:254 213:250 214:62 234:85 235:219 236:254 237:254 238:238 239:205 240:254 241:142 263:6 264:9 265:9 266:8 267:204 268:254 269:59 294:48 295:247 296:146 297:4 322:175 323:250 324:56 349:16 350:244 351:167 376:2 377:128 378:254 379:48 404:20 405:254 406:222 407:16 432:126 433:254 434:65 459:43 460:246 461:217 462:8 464:7 465:10 466:10 467:10 468:61 469:107 470:107 471:107 472:103 487:144 488:254 489:194 490:169 491:169 492:227 493:254 494:254 495:254 496:254 497:254 498:208 499:182 500:77 511:29 512:133 513:144 514:231 515:254 516:254 517:254 518:254 519:254 520:228 521:216 522:139 523:120 524:106 525:24 526:9 537:66 538:185 539:240 540:254 541:252 542:250 543:193 544:153 545:123 546:57 547:57 548:19 565:188 566:187 567:152 568:91 569:48 #
-2.1735599739196094e-007 216:12 217:32 218:112 219:190 220:91 242:32 243:127 244:174 245:251 246:251 247:251 248:251 268:8 269:64 270:210 271:251 272:253 273:251 274:251 275:235 276:188 296:131 297:251 298:251 299:251 300:253 301:231 302:94 303:70 322:60 323:255 324:253 325:253 326:253 327:253 328:100 349:28 350:170 351:253 352:251 353:251 354:204 355:62 377:221 378:251 379:253 380:251 381:188 382:94 403:68 404:221 405:248 406:251 407:229 408:168 409:15 430:60 431:228 432:251 433:251 434:251 435:59 457:60 458:255 459:253 460:253 461:229 462:59 484:48 485:228 486:253 487:251 488:235 489:66 511:64 512:158 513:251 514:253 515:156 516:63 538:8 539:158 540:251 541:251 542:229 543:47 566:131 567:251 568:251 569:251 570:59 593:96 594:253 595:253 596:229 597:59 621:115 622:251 623:235 624:66 649:253 650:235 651:63 677:31 678:27 #
2.1735599739196094e-007 127:10 128:129 129:255 130:122 154:49 155:204 156:254 157:254 158:211 159:74 182:175 183:254 184:221 185:236 186:249 187:142 209:61 210:251 211:235 212:26 213:113 214:236 236:63 237:245 238:233 239:62 241:109 242:236 263:44 264:243 265:231 266:34 269:109 270:236 291:5 292:99 293:66 296:6 297:199 298:236 324:26 325:254 326:142 352:118 353:235 354:9 379:41 380:245 381:173 403:34 404:39 405:33 406:18 407:184 408:241 409:31 429:27 430:138 431:229 432:219 433:229 434:213 435:254 436:145 456:59 457:148 458:91 459:25 461:96 462:254 463:254 464:96 483:98 484:174 485:25 488:43 489:226 490:241 491:248 492:209 510:90 511:222 512:33 515:44 516:224 517:230 518:77 519:136 520:239 521:26 537:30 538:225 539:183 541:4 542:35 543:212 544:210 545:33 547:53 548:254 549:125 565:74 566:254 567:40 568:4 569:154 570:251 571:179 572:11 575:19 576:232 577:209 593:71 594:253 595:186 596:196 597:226 598:68 604:195 605:232 622:74 623:77 624:59 632:111 633:232 660:26 661:232 #
6.3815310146093112e-008 98:61 99:253 100:245 101:218 102:253 103:237 104:55 125:36 126:183 127:252 128:252 129:252 130:252 131:253 132:168 152:6 153:162 154:253 155:252 156:252 157:252 158:252 159:253 160:168 180:64 181:252 182:253 183:252 184:194 185:231 186:252 187:253 188:98 208:37 209:235 210:236 211:112 212:4 213:169 214:252 215:218 216:11 240:13 241:218 242:253 243:194 268:101 269:252 270:252 271:71 295:8 296:226 297:252 298:155 323:112 324:252 325:236 326:66 350:80 351:242 352:252 353:145 377:62 378:255 379:253 380:223 381:35 405:185 406:253 407:224 408:40 432:112 433:249 434:250 435:66 459:41 460:225 461:252 462:185 483:27 484:106 485:107 486:106 487:223 488:252 489:164 490:18 510:48 511:218 512:253 513:254 514:253 515:253 516:199 517:18 538:232 539:252 540:252 541:253 542:252 543:252 544:84 553:8 554:28 565:87 566:251 567:252 568:252 569:253 570:252 571:252 572:212 573:83 580:43 581:226 582:84 593:190 594:252 595:252 596:252 597:253 598:205 599:145 600:231 601:252 602:152 603:43 607:29 608:197 609:252 610:84 621:102 622:252 623:252 624:252 625:174 626:11 628:99 629:235 630:253 631:239 632:211 633:140 634:150 635:219 636:252 637:146 638:14 #
-2.1735599739196094e-007 96:185 97:211 98:138 123:30 124:228 125:252 126:252 127:22 151:130 152:252 153:252 154:252 155:116 178:19 179:236 180:252 181:252 182:252 183:157 206:128 207:252 208:252 209:252 210:252 211:241 212:42 234:202 235:253 236:247 237:239 238:253 239:255 240:92 261:74 262:253 263:252 264:162 265:93 266:252 267:253 268:92 289:116 290:253 291:252 292:69 293:93 294:252 295:253 296:92 317:157 318:253 319:252 320:69 321:17 322:234 323:253 324:143 345:230 346:253 347:210 348:6 350:126 351:253 352:196 372:93 373:253 374:252 375:84 378:127 379:255 380:211 381:7 400:34 401:217 402:209 406:157 407:253 408:252 409:69 429:32 430:32 434:199 435:253 436:252 437:69 462:135 463:253 464:252 465:69 490:116 491:253 492:252 493:69 518:127 519:255 520:228 521:32 523:74 524:128 525:19 540:38 541:47 542:47 543:47 544:47 545:89 546:244 547:253 548:236 549:78 550:89 551:244 552:253 553:206 567:51 568:240 569:252 570:253 571:252 572:252 573:252 574:252 575:253 576:252 577:252 578:252 579:252 580:253 581:174 595:13 596:215 597:252 598:253 599:252 600:252 601:252 602:252 603:253 604:252 605:252 606:252 607:252 608:203 609:58 624:61 625:242 626:253 627:252 628:252 629:252 630:252 631:137 632:64 633:54 634:96 635:22 636:11 #
2.1735599739196094e-007 125:56 126:208 127:254 128:255 129:254 130:94 153:156 154:254 155:227 156:214 157:254 158:227 159:13 180:102 181:250 182:219 183:36 184:12 185:208 186:254 187:102 207:11 208:225 209:254 210:121 213:169 214:254 215:99 235:72 236:254 237:226 238:25 240:43 241:236 242:224 243:13 263:44 264:239 265:116 268:128 269:254 270:186 295:43 296:231 297:254 298:96 323:108 324:254 325:203 326:3 350:39 351:224 352:231 353:42 377:8 378:207 379:254 380:144 405:129 406:254 407:196 408:13 432:63 433:236 434:234 435:54 459:3 460:181 461:254 462:131 487:189 488:254 489:239 490:30 514:137 515:253 516:238 517:60 520:2 521:68 522:123 523:156 524:131 541:110 542:247 543:238 544:61 545:29 546:128 547:212 548:233 549:254 550:239 551:181 552:62 567:6 568:120 569:245 570:254 571:156 572:150 573:237 574:254 575:251 576:180 577:125 578:29 594:6 595:153 596:254 597:254 598:254 599:254 600:254 601:249 602:184 603:66 622:50 623:254 624:254 625:254 626:254 627:245 628:136 629:51 650:32 651:240 652:183 653:164 654:104 655:28 #
2.1735599739196094e-007 290:10 291:188 292:143 293:25 318:88 319:182 320:243 321:243 322:35 329:5 330:59 331:109 332:173 333:140 348:174 349:254 350:167 352:9 353:65 354:154 355:213 356:224 357:227 358:254 359:254 360:165 361:126 376:128 377:254 378:122 379:61 380:232 381:254 382:254 383:254 384:254 385:232 386:155 387:93 388:5 402:22 403:91 404:226 405:254 406:250 407:251 408:253 409:185 410:149 411:110 412:66 413:7 427:7 428:99 429:200 430:241 431:254 432:254 433:247 434:174 435:174 436:72 454:73 455:175 456:254 457:203 458:206 459:255 460:246 461:95 482:204 483:227 484:96 485:105 486:215 487:237 488:112 510:202 511:251 512:237 513:253 514:223 515:125 516:1 538:29 539:170 540:145 541:73 #
-2.1735599739196094e-007 73:2 74:117 75:253 76:60 94:19 95:5 100:3 101:115 102:252 103:252 104:60 121:38 122:230 123:65 127:43 128:166 129:252 130:252 131:214 132:23 149:61 150:252 151:184 152:49 153:49 154:163 155:253 156:252 157:252 158:252 159:169 177:18 178:210 179:252 180:252 181:252 182:252 183:253 184:252 185:252 186:217 187:21 206:46 207:157 208:180 209:180 210:180 211:69 212:252 213:252 214:204 239:13 240:252 241:252 242:106 267:13 268:252 269:221 270:12 295:122 296:252 297:216 323:132 324:252 325:101 350:64 351:255 352:253 353:96 378:121 379:253 380:250 381:87 406:138 407:253 408:211 434:241 435:253 436:108 454:6 455:61 456:61 457:46 462:241 463:250 464:82 472:29 481:44 482:199 483:252 484:252 485:238 486:193 487:152 488:11 489:84 490:250 491:241 500:213 509:231 510:252 511:252 512:252 513:252 514:252 515:252 516:165 517:156 518:252 519:241 525:29 526:85 527:194 528:210 537:207 538:252 539:252 540:252 541:252 542:252 543:252 544:252 545:252 546:252 547:252 548:217 549:217 550:194 551:126 552:217 553:229 554:252 555:210 556:24 565:18 566:143 567:143 568:143 569:143 570:227 571:252 572:252 573:252 574:252 575:253 576:252 577:252 578:252 579:252 580:252 581:252 582:158 583:25 598:9 599:11 600:58 601:241 602:252 603:132 604:143 605:235 606:131 607:131 608:131 609:34 610:2 #
-2.1735599739196094e-007 100:18 102:43 103:123 104:201 105:145 121:29 122:137 123:190 124:190 125:191 126:190 127:190 128:216 129:190 130:253 131:252 132:252 133:189 149:182 150:252 151:252 152:252 153:253 154:252 155:252 156:252 157:252 158:227 159:226 160:251 161:129 177:108 178:136 179:189 180:189 181:172 182:84 183:84 184:84 185:84 186:148 187:252 188:205 214:236 215:252 216:126 241:62 242:255 243:186 244:53 268:22 269:199 270:253 271:63 296:117 297:252 298:223 299:32 324:169 325:252 326:80 351:54 352:204 353:252 379:128 380:253 381:236 407:162 408:252 409:112 434:87 435:251 436:221 437:21 462:190 463:252 464:162 490:190 491:235 492:14 517:43 518:227 519:109 542:71 543:22 544:85 545:227 546:252 547:195 548:190 549:190 550:191 551:190 552:51 564:16 565:75 566:83 567:171 568:233 569:232 570:249 571:237 572:252 573:253 574:252 575:252 576:252 577:252 578:253 579:252 580:73 592:190 593:252 594:252 595:252 596:253 597:252 598:252 599:252 600:252 601:253 602:252 603:247 604:189 605:189 606:172 607:128 608:7 620:190 621:252 622:252 623:252 624:253 625:252 626:199 627:173 628:252 629:147 630:112 631:38 #
-2.1735599739196094e-007 103:147 104:222 105:101 121:29 122:117 123:75 130:226 131:249 132:252 133:223 149:194 150:239 151:65 156:38 157:135 158:253 159:252 160:252 161:192 176:92 177:243 178:180 182:10 183:138 184:224 185:252 186:253 187:252 188:252 189:84 204:253 205:204 206:25 210:163 211:252 212:252 213:252 214:174 215:252 216:220 217:37 232:255 233:206 234:88 235:76 236:191 237:255 238:253 239:253 240:162 242:255 243:253 244:133 260:253 261:252 262:246 263:243 264:252 265:168 266:121 267:27 268:9 269:48 270:253 271:223 272:37 288:56 289:103 290:195 291:102 292:55 296:54 297:227 298:253 299:167 324:169 325:252 326:253 327:74 351:32 352:215 353:252 354:190 355:12 379:120 380:253 381:253 406:76 407:246 408:252 409:252 434:117 435:252 436:245 437:118 462:225 463:252 464:208 489:63 490:240 491:252 492:84 516:63 517:255 518:253 519:253 520:84 540:38 541:85 542:85 543:101 544:240 545:253 546:252 547:252 548:234 549:225 550:226 551:178 552:85 553:76 563:57 564:57 565:88 566:197 567:197 568:222 569:252 570:252 571:252 572:252 573:253 574:252 575:252 576:252 577:252 578:253 579:252 580:252 581:246 582:197 591:253 592:252 593:252 594:252 595:252 596:253 597:252 598:252 599:252 600:252 601:225 602:223 603:223 604:223 605:223 606:84 607:84 608:84 609:84 610:84 619:112 620:158 621:141 622:112 623:112 624:112 625:112 626:221 627:252 628:173 #
-2.1735599739196094e-007 122:76 123:253 124:253 125:253 126:253 127:104 149:99 150:221 151:252 152:252 153:252 154:252 155:103 177:42 178:136 179:252 180:252 181:252 182:252 183:199 184:98 205:57 206:158 207:252 208:252 209:252 210:252 211:181 212:79 233:120 234:252 235:252 236:252 237:252 238:252 239:147 240:45 261:120 262:252 263:252 264:252 265:252 266:252 267:252 268:161 269:23 289:120 290:252 291:252 292:252 293:252 294:252 295:252 296:253 297:192 317:7 318:85 319:252 320:252 321:252 322:252 323:252 324:253 325:192 346:18 347:82 348:252 349:252 350:252 351:252 352:253 353:238 354:182 375:30 376:252 377:252 378:252 379:252 380:253 381:252 382:245 383:149 384:17 402:31 403:123 404:253 405:253 406:253 407:253 408:255 409:253 410:247 411:149 412:17 430:57 431:199 432:252 433:252 434:252 435:252 436:253 437:252 438:237 459:30 460:252 461:252 462:252 463:252 464:253 465:252 466:237 487:30 488:252 489:252 490:252 491:252 492:253 493:252 494:237 515:30 516:252 517:252 518:252 519:252 520:253 521:252 522:237 543:9 544:74 545:242 546:252 547:252 548:253 549:252 550:247 551:178 552:178 553:52 571:16 572:134 573:245 574:252 575:252 576:253 577:252 578:252 579:252 580:132 581:35 599:20 600:162 601:247 602:252 603:252 604:253 605:252 606:252 607:252 608:108 609:26 629:196 630:241 631:252 632:253 633:252 634:252 635:252 636:212 637:61 658:193 659:252 660:253 661:252 662:252 663:252 664:29 #
-2.1735599739196094e-007 127:29 128:226 129:114 152:29 153:114 154:198 155:255 156:255 157:226 177:29 178:86 179:198 180:255 181:255 182:255 183:255 184:255 185:255 204:86 205:255 206:255 207:255 208:255 209:255 210:255 211:255 212:255 213:255 232:57 233:255 234:255 235:255 236:255 237:255 238:255 239:255 240:255 241:198 261:114 262:226 263:255 264:255 265:255 266:255 267:226 268:255 269:170 290:29 291:86 292:114 293:86 294:86 295:86 296:255 297:170 323:86 324:255 325:114 351:226 352:255 353:29 379:255 380:255 406:57 407:255 408:255 434:86 435:255 436:255 462:141 463:255 464:255 490:114 491:255 492:255 518:141 519:255 520:255 546:226 547:255 548:255 569:57 570:141 571:170 572:198 573:255 574:255 575:255 576:255 577:255 578:170 579:86 596:226 597:255 598:255 599:255 600:255 601:255 602:255 603:255 604:255 605:255 606:255 607:255 608:226 609:29 624:255 625:255 626:255 627:255 628:255 629:255 630:255 631:255 632:255 633:255 634:255 635:255 636:255 637:226 652:57 653:86 654:86 658:57 659:29 660:86 661:114 662:141 663:198 664:170 665:198 #
2.1735599739196094e-007 208:64 209:146 210:172 211:91 212:3 233:21 234:174 235:220 236:253 237:254 238:250 239:254 240:80 261:17 262:199 263:156 264:190 265:126 266:94 267:254 268:108 290:2 293:4 294:155 295:247 296:38 321:113 322:254 323:116 347:36 348:128 349:249 350:179 372:37 373:123 374:208 375:254 376:254 377:255 378:198 398:52 399:174 400:249 401:209 402:254 403:254 404:156 405:103 406:254 407:122 408:10 415:34 416:52 425:121 426:251 427:254 428:235 429:243 430:248 431:143 432:14 433:4 434:152 435:253 436:175 437:18 442:2 443:113 444:243 453:254 454:254 455:254 456:242 457:171 458:51 463:128 464:249 465:252 466:126 467:56 468:56 469:72 470:201 471:254 472:205 481:64 482:64 483:83 484:27 492:91 493:230 494:254 495:254 496:254 497:254 498:254 499:193 500:19 521:11 522:102 523:171 524:171 525:118 526:36 527:4 #
-2.1735599739196094e-007 98:8 99:232 100:201 126:175 127:254 128:117 153:48 154:251 155:254 156:54 181:106 182:254 183:54 184:2 208:83 209:224 210:254 234:16 235:112 236:188 237:254 238:188 260:1 261:55 262:208 263:225 264:113 265:201 266:176 287:9 288:185 289:254 290:246 291:102 293:208 294:176 315:55 316:216 317:188 318:47 320:66 321:246 322:176 344:7 348:38 349:254 350:129 376:19 377:236 378:177 405:171 406:238 433:131 434:254 461:104 462:254 463:104 489:55 490:254 491:154 517:9 518:192 519:225 520:13 523:10 524:62 525:42 544:1 545:6 546:88 547:255 548:143 549:153 550:162 551:223 552:254 553:242 570:27 571:107 572:193 573:233 574:254 575:254 576:254 577:254 578:254 579:230 580:223 581:225 597:32 598:247 599:254 600:254 601:254 602:254 603:200 604:139 605:123 606:72 607:11 609:14 625:63 626:254 627:251 628:144 629:84 630:23 #
2.1735599739196094e-007 71:109 72:214 73:6 99:75 100:254 101:24 127:53 128:254 129:86 155:53 156:254 157:16 183:53 184:254 185:16 211:128 212:194 213:2 238:14 239:226 240:162 266:41 267:251 268:51 294:111 295:202 321:14 322:227 323:150 349:72 350:220 351:7 374:61 375:64 376:5 377:172 378:167 401:132 402:253 403:254 404:240 405:237 406:25 428:33 429:244 430:124 431:64 432:255 433:254 434:134 456:107 457:230 458:12 459:125 460:236 461:170 462:243 463:61 484:129 485:221 486:52 487:249 488:62 489:16 490:221 491:206 492:23 512:64 513:254 514:239 515:196 518:36 519:221 520:186 521:17 540:23 541:201 542:153 543:15 547:79 548:248 549:157 550:1 569:6 570:2 576:89 577:250 578:200 579:70 580:70 581:35 605:62 606:172 607:199 608:173 609:63 #
2.1735599739196094e-007 204:56 205:62 206:62 207:62 208:62 209:62 210:62 211:62 212:62 213:47 229:199 230:229 231:216 232:199 233:202 234:202 235:202 236:202 237:202 238:220 239:202 240:216 241:248 242:151 257:93 258:68 259:27 266:12 268:117 269:254 270:156 295:66 296:238 297:225 298:29 322:40 323:189 324:247 325:82 349:7 350:160 351:250 352:141 377:101 378:255 379:142 404:43 405:233 406:193 407:28 432:164 433:253 434:85 459:135 460:253 461:136 486:21 487:233 488:223 489:29 514:28 515:244 516:149 543:157 544:234 545:52 553:20 554:81 555:132 556:132 571:60 572:168 573:228 574:211 575:185 576:124 577:124 578:124 579:169 580:211 581:175 582:131 583:98 584:44 601:38 602:83 603:140 604:195 605:146 606:140 607:95 608:53 609:29 #
2.1735599739196094e-007 264:38 265:113 266:179 267:93 268:2 275:8 276:174 290:4 291:180 292:254 293:254 294:254 295:254 296:127 303:161 304:136 318:21 319:199 320:216 321:111 322:70 323:137 324:251 325:70 330:100 331:233 332:16 347:4 348:4 351:52 352:254 353:91 357:38 358:237 359:62 369:8 370:127 371:105 372:76 373:6 378:5 379:145 380:237 381:19 384:6 385:180 386:148 397:172 398:254 399:254 400:254 401:162 402:11 405:56 406:186 407:217 408:51 411:18 412:184 413:172 414:23 425:162 426:254 427:149 428:187 429:255 430:193 431:97 432:177 433:241 434:173 435:37 438:59 439:184 440:152 441:23 454:127 455:229 456:252 457:254 458:253 459:254 460:223 461:61 462:6 463:10 464:74 465:154 466:224 467:125 468:4 484:17 485:49 486:36 487:210 488:254 489:228 490:200 491:254 492:201 493:128 494:16 515:4 516:55 517:84 518:130 519:67 520:1 #
-2.1735599739196094e-007 156:64 157:154 158:103 159:1 184:196 185:254 186:254 187:5 211:78 212:240 213:254 214:254 215:5 237:9 238:109 239:241 240:254 241:254 242:215 243:4 265:74 266:254 267:254 268:254 269:214 270:27 292:9 293:197 294:254 295:254 296:254 297:102 319:11 320:245 321:254 322:254 323:254 324:144 325:18 346:15 347:187 348:254 349:254 350:254 351:197 352:22 373:17 374:128 375:254 376:254 377:254 378:225 379:23 401:163 402:254 403:254 404:254 405:211 406:93 427:14 428:121 429:244 430:254 431:254 432:252 433:71 455:36 456:254 457:254 458:254 459:254 460:88 471:77 472:185 473:61 482:15 483:204 484:254 485:254 486:254 487:144 488:1 499:84 500:254 501:252 510:137 511:254 512:254 513:254 514:202 515:12 527:84 528:254 529:255 538:192 539:254 540:254 541:241 542:79 555:84 556:254 557:254 566:137 567:254 568:254 569:216 570:22 583:84 584:254 585:168 594:37 595:222 596:254 597:89 611:84 612:221 613:36 623:21 624:35 625:9 639:12 640:21 #
-2.1735599739196094e-007 152:63 153:253 154:78 180:63 181:254 182:202 208:121 209:254 210:202 236:167 237:254 238:202 242:164 243:58 263:2 264:176 265:254 266:192 270:240 271:248 272:88 291:46 292:254 293:254 294:99 298:180 299:254 300:234 319:121 320:254 321:250 322:12 326:17 327:221 328:234 347:121 348:254 349:249 355:182 356:234 375:165 376:254 377:204 382:27 383:243 384:234 402:15 403:230 404:254 405:145 410:53 411:254 412:234 430:74 431:254 432:254 433:105 438:176 439:254 440:234 458:175 459:254 460:219 461:18 466:240 467:254 468:72 486:177 487:254 488:192 494:240 495:159 496:7 513:4 514:187 515:254 516:179 522:210 523:5 541:27 542:254 543:254 544:88 550:102 569:128 570:255 571:247 572:45 597:235 598:254 599:211 625:235 626:254 627:134 653:235 654:254 655:134 681:107 682:255 683:134 #
-1.5379026033871259e-007 155:112 156:199 157:94 182:29 183:239 184:79 210:44 211:254 212:47 238:97 239:254 240:47 266:181 267:231 268:19 294:216 295:136 321:27 322:238 323:52 349:66 350:255 351:43 377:180 378:201 379:6 405:221 406:81 432:44 433:249 434:39 460:64 461:254 462:39 488:149 489:216 490:8 516:225 517:168 544:225 545:114 572:225 573:70 600:225 601:121 628:222 629:121 656:137 657:181 658:3 684:35 685:243 686:66 #
-2.1735599739196094e-007 127:11 128:92 129:254 130:131 155:51 156:252 157:192 158:30 183:113 184:253 185:62 211:152 212:252 213:20 239:255 240:233 266:82 267:253 268:111 293:11 294:213 295:254 296:50 321:51 322:252 323:213 324:10 349:152 350:253 351:82 376:41 377:233 378:252 404:102 405:254 406:151 432:142 433:253 434:70 459:31 460:233 461:203 487:92 488:252 489:162 515:152 516:253 517:102 543:152 544:252 545:61 571:153 572:253 573:21 599:152 600:252 601:102 627:21 628:223 629:234 630:71 631:21 656:81 657:213 658:252 659:61 #
-7.3060469328228352e-008 186:32 187:217 188:217 189:218 190:113 191:5 214:115 215:251 216:251 217:221 218:142 219:20 241:105 242:241 243:251 244:251 245:51 268:125 269:253 270:253 271:253 272:201 294:63 295:144 296:253 297:251 298:230 299:107 300:30 305:105 321:58 322:231 323:251 324:253 325:251 326:189 333:154 348:63 349:231 350:251 351:251 352:253 353:188 354:20 375:53 376:221 377:251 378:251 379:251 380:201 381:30 402:53 403:255 404:253 405:253 406:253 407:201 430:180 431:253 432:251 433:251 434:188 435:30 456:6 457:115 458:241 459:253 460:251 461:220 462:20 484:115 485:251 486:251 487:253 488:188 489:123 510:53 511:180 512:241 513:251 514:251 515:253 516:107 538:255 539:253 540:253 541:253 542:253 543:130 566:253 567:251 568:251 569:251 570:147 594:216 595:215 596:215 597:137 598:10 #
1.6662473939051385e-007 130:2 131:83 132:140 133:171 134:144 156:5 157:85 158:190 159:254 160:254 161:254 162:254 184:201 185:254 186:254 187:219 188:83 189:250 190:195 212:164 213:154 214:105 215:5 216:115 217:254 218:78 243:13 244:244 245:182 246:1 270:29 271:225 272:247 273:7 297:8 298:199 299:246 300:77 325:167 326:254 327:79 352:100 353:250 354:94 355:4 379:128 380:249 381:148 382:4 396:35 397:54 398:34 399:47 400:47 401:47 402:47 403:9 406:128 407:249 408:121 409:4 423:147 424:243 425:241 426:244 427:254 428:254 429:254 430:254 431:225 432:149 433:149 434:239 435:87 436:5 451:245 452:254 453:180 454:33 455:33 456:33 457:33 458:90 459:254 460:254 461:254 462:215 463:7 479:208 480:249 481:26 483:5 484:59 485:96 486:212 487:207 488:128 489:100 490:246 491:166 492:7 507:46 508:188 509:237 510:230 511:232 512:207 513:128 514:70 515:5 518:149 519:254 520:98 536:8 537:21 538:21 539:21 540:5 546:21 547:235 548:196 575:198 576:251 577:64 578:181 579:5 603:86 604:254 605:251 606:254 607:16 631:2 632:201 633:254 634:163 635:1 660:22 661:88 662:8 #
-2.1735599739196094e-007 123:234 124:255 125:186 126:34 127:15 151:232 152:252 153:252 154:252 155:109 179:232 180:252 181:252 182:252 183:165 184:30 207:232 208:252 209:252 210:252 211:252 212:76 235:232 236:252 237:252 238:252 239:252 240:76 263:232 264:252 265:252 266:252 267:252 268:76 291:232 292:252 293:252 294:252 295:252 296:238 297:39 319:232 320:252 321:252 322:252 323:252 324:252 325:43 347:232 348:252 349:252 350:252 351:252 352:252 353:43 375:232 376:252 377:252 378:252 379:252 380:252 381:134 382:4 403:232 404:252 405:252 406:252 407:252 408:252 409:252 410:9 431:232 432:252 433:252 434:252 435:252 436:252 437:252 438:9 459:232 460:252 461:252 462:252 463:252 464:252 465:252 466:9 487:213 488:252 489:252 490:252 491:252 492:252 493:252 494:9 515:12 516:252 517:252 518:252 519:252 520:252 521:252 522:9 543:12 544:252 545:252 546:252 547:252 548:252 549:252 550:87 571:12 572:252 573:252 574:252 575:252 576:252 577:252 578:230 599:12 600:252 601:252 602:252 603:252 604:252 605:252 606:230 627:3 628:98 629:252 630:252 631:252 632:252 633:252 634:230 656:45 657:252 658:252 659:252 660:252 661:252 662:37 #
2.1735599739196094e-007 125:1 126:69 127:93 129:36 130:48 131:122 132:160 133:213 134:208 135:56 153:87 154:254 155:192 156:112 157:241 158:254 159:254 160:254 161:254 162:254 163:135 180:24 181:173 182:254 183:254 184:254 185:254 186:235 187:186 188:140 189:254 190:254 191:94 207:46 208:231 209:254 210:254 211:254 212:207 213:93 214:32 215:26 216:210 217:254 218:217 219:63 233:25 234:130 235:232 236:254 237:254 238:207 239:84 240:9 242:27 243:211 244:254 245:248 246:41 260:59 261:217 262:255 263:254 264:254 265:176 269:56 270:212 271:254 272:249 273:91 287:24 288:207 289:254 290:254 291:254 292:145 293:18 296:76 297:222 298:254 299:250 300:176 315:141 316:254 317:254 318:254 319:103 322:13 323:104 324:253 325:254 326:247 327:91 343:38 344:222 345:241 346:116 347:5 349:5 350:139 351:254 352:254 353:253 354:91 373:41 376:13 377:182 378:254 379:254 380:246 381:90 403:7 404:180 405:254 406:254 407:254 408:47 430:60 431:238 432:254 433:254 434:207 435:68 436:1 457:93 458:236 459:254 460:254 461:171 462:24 483:5 484:142 485:253 486:254 487:253 488:155 489:26 511:143 512:254 513:254 514:254 515:132 538:55 539:250 540:254 541:242 542:57 543:3 548:12 549:21 550:10 565:13 566:213 567:254 568:254 569:158 574:14 575:68 576:218 577:254 578:146 593:48 594:254 595:254 596:254 597:236 598:219 599:219 600:219 601:219 602:226 603:254 604:254 605:254 606:250 607:63 621:18 622:219 623:254 624:254 625:254 626:254 627:254 628:254 629:254 630:254 631:254 632:254 633:254 634:211 635:27 650:36 651:104 652:227 653:254 654:254 655:254 656:254 657:254 658:233 659:150 660:150 661:108 662:71 #
-9.0051470818945217e-008 123:86 124:253 125:237 126:50 151:85 152:252 153:252 154:237 155:86 156:9 179:85 180:252 181:252 182:252 183:253 184:136 207:101 208:252 209:252 210:252 211:253 212:151 234:141 235:240 236:252 237:252 238:252 239:253 240:27 260:170 261:253 262:255 263:253 264:253 265:253 266:253 267:255 268:27 287:67 288:196 289:252 290:253 291:252 292:252 293:252 294:252 295:253 296:152 315:197 316:252 317:252 318:253 319:252 320:252 321:252 322:252 323:253 324:167 343:181 344:252 345:252 346:253 347:252 348:252 349:252 350:252 351:253 352:167 371:57 372:252 373:252 374:253 375:252 376:173 377:252 378:252 379:253 380:167 400:95 401:140 405:169 406:253 407:255 408:168 433:169 434:252 435:253 436:167 461:137 462:252 463:253 464:233 465:165 466:19 489:26 490:239 491:253 492:252 493:252 494:99 518:140 519:253 520:252 521:252 522:239 523:63 547:255 548:253 549:253 550:253 551:112 575:253 576:252 577:252 578:252 579:237 580:48 603:222 604:252 605:252 606:252 607:252 608:229 609:53 631:38 632:218 633:252 634:252 635:252 636:253 637:224 638:37 660:85 661:252 662:252 663:252 664:253 665:252 666:133 #
-2.1735599739196094e-007 96:30 97:238 98:232 99:94 123:36 124:238 125:254 126:254 127:162 149:5 150:11 151:188 152:254 153:254 154:254 155:162 176:27 177:229 178:254 179:254 180:254 181:236 182:254 183:162 204:91 205:254 206:254 207:254 208:154 209:130 210:254 211:162 232:5 233:142 234:192 235:68 236:7 237:126 238:254 239:245 240:14 265:79 266:254 267:254 268:16 293:126 294:254 295:215 296:9 321:126 322:254 323:169 324:2 349:126 350:254 351:162 377:126 378:254 379:162 405:126 406:254 407:162 433:126 434:254 435:162 461:126 462:254 463:162 489:136 490:254 491:162 516:51 517:239 518:255 519:162 543:20 544:220 545:254 546:254 547:239 548:13 551:67 552:158 571:110 572:254 573:254 574:254 575:254 576:250 577:250 578:204 579:252 580:253 581:148 599:128 600:254 601:254 602:254 603:254 604:254 605:254 606:254 607:254 608:254 609:151 627:8 628:75 629:146 630:146 631:146 632:146 633:146 634:187 635:254 636:227 637:41 #
-2.1735599739196094e-007 99:50 100:181 101:87 126:9 127:204 128:254 129:141 150:23 151:54 152:54 153:74 154:191 155:254 156:254 157:117 175:16 176:160 177:190 178:217 179:254 180:254 181:254 182:254 183:254 184:254 185:23 203:35 204:232 205:254 206:254 207:211 208:165 209:91 210:96 211:254 212:254 213:23 232:22 233:29 234:29 235:15 238:60 239:254 240:254 241:23 266:60 267:254 268:254 269:23 294:60 295:254 296:254 297:23 322:60 323:254 324:254 325:23 350:60 351:254 352:255 353:23 378:60 379:254 380:254 381:23 406:60 407:254 408:255 409:23 434:60 435:254 436:254 437:23 462:60 463:254 464:254 465:23 490:60 491:254 492:254 493:93 518:60 519:254 520:254 521:64 546:17 547:212 548:254 549:54 569:30 570:10 571:39 574:20 575:215 576:254 577:178 578:2 579:49 580:84 581:23 595:47 596:220 597:232 598:224 599:236 600:220 601:220 602:228 603:254 604:254 605:254 606:221 607:240 608:254 609:229 610:46 623:29 624:169 625:254 626:254 627:254 628:254 629:254 630:254 631:254 632:254 633:254 634:254 635:254 636:254 637:138 638:4 #
-2.1735599739196094e-007 126:76 127:191 128:114 129:12 152:29 153:194 154:243 155:252 156:253 157:74 179:26 180:200 181:252 182:252 183:252 184:253 185:167 203:73 204:169 205:72 206:16 207:207 208:252 209:245 210:148 211:252 212:253 213:167 230:141 231:240 232:252 233:239 234:203 235:253 236:204 237:87 238:107 239:252 240:253 241:167 258:255 259:253 260:253 261:253 262:253 263:141 264:15 266:29 267:253 268:255 269:106 286:90 287:167 288:167 289:151 290:27 294:29 295:252 296:253 297:27 322:138 323:252 324:253 325:27 350:169 351:252 352:178 353:9 378:169 379:252 380:63 405:26 406:207 407:253 433:57 434:252 435:252 461:166 462:252 463:252 489:197 490:252 491:236 517:197 518:252 519:112 544:86 545:253 546:253 547:174 550:89 551:113 552:113 553:114 554:113 555:113 556:113 557:113 568:19 569:85 570:163 571:226 572:234 573:252 574:252 575:252 576:226 577:225 578:246 579:252 580:252 581:253 582:252 583:233 584:167 585:89 595:67 596:209 597:252 598:252 599:253 600:252 601:252 602:252 603:252 604:253 605:252 606:252 607:214 608:195 609:196 610:148 611:43 623:28 624:84 625:177 626:223 627:237 628:252 629:252 630:138 631:84 632:84 633:84 634:84 635:28 655:50 656:237 657:220 658:37 #
-2.1735599739196094e-007 125:255 126:255 127:255 150:255 151:255 152:255 153:255 154:255 155:255 178:255 179:255 180:255 181:255 182:255 183:255 184:255 206:255 207:255 208:255 209:255 210:255 211:255 212:255 234:255 235:255 236:255 237:255 238:255 239:255 240:255 241:255 262:255 263:255 264:255 265:255 266:255 267:255 268:255 269:255 290:255 291:255 292:255 293:255 294:255 295:255 296:255 297:255 318:255 319:255 320:255 321:255 322:255 323:255 324:255 346:255 347:255 348:255 349:255 350:255 351:255 375:255 376:255 377:255 378:255 379:255 380:255 381:255 402:255 403:255 404:255 405:255 406:255 407:255 408:255 409:255 430:255 431:255 432:255 433:255 434:255 435:255 436:255 437:255 458:255 459:255 460:255 461:255 462:255 463:255 464:255 465:255 466:255 486:255 487:255 488:255 489:255 490:255 491:255 492:255 493:255 494:255 515:255 516:255 517:255 518:255 519:255 520:255 521:255 522:255 543:255 544:255 545:255 546:255 547:255 548:255 549:255 550:255 571:255 572:255 573:255 574:255 575:255 576:255 577:255 578:255 600:255 601:255 602:255 603:255 604:255 605:255 606:255 629:255 630:255 631:255 632:255 633:255 634:255 658:255 659:255 660:255 661:255 #
2.1735599739196094e-007 102:39 103:233 104:38 129:8 130:213 131:209 132:28 157:118 158:254 159:89 160:14 161:37 184:85 185:253 186:255 187:212 188:207 189:233 190:26 211:76 212:218 213:254 214:254 215:254 216:254 217:254 218:35 238:33 239:231 240:254 241:249 242:147 243:90 244:222 245:254 246:35 264:24 265:152 266:247 267:254 268:199 269:69 270:1 271:163 272:254 273:211 274:18 290:1 291:35 292:213 293:254 294:254 295:190 296:63 297:2 298:107 299:254 300:248 301:48 317:88 318:163 319:254 320:254 321:225 322:122 323:15 325:32 326:254 327:247 328:158 344:146 345:246 346:254 347:221 348:121 349:23 352:80 353:217 354:248 355:104 372:208 373:254 374:178 375:26 379:66 380:211 381:245 382:52 400:34 401:41 402:2 406:74 407:229 408:212 409:41 432:19 433:196 434:215 435:42 436:13 458:1 459:79 460:207 461:190 462:4 485:13 486:146 487:254 488:161 489:32 492:28 493:30 494:30 495:30 496:61 497:55 498:30 499:16 512:81 513:203 514:253 515:140 516:33 517:12 518:84 519:166 520:247 521:254 522:254 523:254 524:254 525:254 526:254 527:135 538:14 539:154 540:242 541:254 542:250 543:66 544:86 545:201 546:254 547:199 548:189 549:189 550:120 551:71 552:101 553:95 554:199 555:135 565:51 566:175 567:254 568:254 569:254 570:254 571:254 572:254 573:196 574:80 575:9 582:21 583:84 592:16 593:241 594:254 595:254 596:254 597:254 598:205 599:142 600:35 601:11 620:74 621:254 622:254 623:165 624:39 625:17 626:9 #
2.1735599739196094e-007 157:5 158:47 159:47 160:9 184:32 185:138 186:252 187:252 188:154 189:7 211:76 212:218 213:253 214:252 215:252 216:252 217:211 237:95 238:230 239:248 240:252 241:253 242:252 243:252 244:252 245:252 263:22 264:202 265:253 266:253 267:253 268:253 269:255 270:253 271:253 272:253 273:253 291:209 292:253 293:252 294:252 295:252 296:231 297:144 298:121 299:252 300:252 301:252 319:32 320:190 321:252 322:252 323:195 324:48 326:47 327:252 328:252 329:252 348:5 349:119 350:77 351:9 354:47 355:252 356:252 357:210 381:11 382:193 383:252 384:252 385:85 409:34 410:253 411:253 412:161 436:22 437:159 438:252 439:252 440:139 464:116 465:253 466:252 467:118 468:13 491:119 492:228 493:253 494:235 495:44 508:85 509:116 510:116 511:116 512:116 513:116 514:21 518:32 519:228 520:252 521:243 522:60 534:13 535:159 536:253 537:253 538:253 539:255 540:253 541:253 542:253 543:253 544:139 545:86 546:222 547:253 548:243 549:53 562:97 563:252 564:252 565:252 566:252 567:253 568:252 569:252 570:252 571:252 572:253 573:252 574:252 575:252 576:64 590:191 591:252 592:252 593:195 594:183 595:69 596:186 597:252 598:252 599:252 600:253 601:252 602:252 603:252 604:107 618:25 619:45 620:45 621:9 624:29 625:45 626:45 627:45 628:46 629:45 630:45 631:45 632:25 #
1.1680153074735279e-007 147:15 148:60 149:60 150:60 151:60 152:139 153:156 154:50 174:165 175:185 176:253 177:253 178:253 179:253 180:253 181:253 182:237 183:164 184:9 202:254 203:253 204:253 205:253 206:253 207:253 208:253 209:253 210:253 211:253 212:149 230:179 231:178 232:178 233:108 234:29 235:29 236:29 237:170 238:236 239:253 240:181 241:13 266:177 267:253 268:254 269:44 294:125 295:253 296:254 297:44 322:194 323:253 324:254 325:44 349:70 350:239 351:253 352:236 353:36 377:178 378:253 379:253 380:149 405:241 406:254 407:254 408:150 432:112 433:251 434:253 435:253 436:26 459:29 460:212 461:253 462:250 463:149 487:179 488:253 489:253 490:208 515:179 516:253 517:253 518:208 543:179 544:253 545:253 546:240 547:92 548:31 549:30 550:30 551:30 552:30 553:30 554:30 555:31 556:30 557:31 571:179 572:253 573:253 574:253 575:253 576:254 577:253 578:253 579:253 580:253 581:253 582:253 583:253 584:253 585:173 599:10 600:94 601:248 602:253 603:253 604:255 605:253 606:253 607:253 608:253 609:253 610:253 611:221 612:136 613:6 629:197 630:208 631:208 632:209 633:208 634:208 635:208 636:76 637:59 638:59 639:38 #
1.8103339941508473e-008 99:29 100:114 101:226 102:226 103:86 126:86 127:226 128:255 129:226 130:255 131:170 153:29 154:255 155:255 156:141 158:29 159:255 160:86 180:29 181:226 182:255 183:57 186:29 187:255 188:57 208:255 209:255 210:86 214:141 215:255 235:226 236:255 237:57 242:255 243:226 262:57 263:255 264:57 269:86 270:255 271:86 290:170 291:255 297:226 298:255 318:198 319:255 320:255 324:86 325:255 326:86 346:86 347:141 348:29 352:226 353:255 379:57 380:255 381:114 407:226 408:255 434:170 435:255 436:86 461:86 462:255 463:170 488:29 489:255 490:255 491:86 492:86 493:86 494:86 495:86 496:86 497:198 498:141 512:86 513:170 514:226 515:255 516:255 517:255 518:255 519:255 520:255 521:255 522:255 523:255 524:255 525:170 526:57 538:198 539:255 540:255 541:255 542:226 543:255 544:255 545:114 546:86 547:86 548:86 549:29 565:170 566:255 567:86 568:57 569:114 570:255 571:255 572:86 593:255 594:198 595:114 596:226 597:255 598:226 599:29 621:255 622:255 623:255 624:226 625:114 #
2.1735599739196094e-007 159:16 160:39 161:39 162:6 184:30 185:88 186:185 187:213 188:254 189:254 190:148 209:5 210:15 211:140 212:235 213:254 214:254 215:252 216:254 217:254 218:254 235:22 236:114 237:233 238:254 239:254 240:254 241:250 242:211 243:80 244:250 245:254 246:236 262:146 263:222 264:254 265:254 266:254 267:235 268:204 269:192 271:113 272:253 273:254 274:112 290:196 291:254 292:224 293:135 294:126 295:21 296:11 297:14 298:39 299:232 300:254 301:186 302:4 318:75 319:190 320:35 325:70 326:254 327:254 328:213 329:29 352:113 353:252 354:254 355:219 356:29 378:9 379:160 380:251 381:253 382:210 383:31 405:20 406:203 407:254 408:254 409:134 432:83 433:220 434:254 435:233 436:121 437:3 458:17 459:175 460:249 461:254 462:234 463:86 485:38 486:209 487:254 488:254 489:207 490:12 512:51 513:236 514:254 515:254 516:168 517:11 519:65 520:99 521:88 538:17 539:143 540:249 541:254 542:254 543:248 544:209 545:245 546:245 547:251 548:254 549:253 550:142 551:5 565:107 566:222 567:254 568:254 569:254 570:254 571:254 572:254 573:254 574:254 575:211 576:189 577:224 578:255 579:43 591:16 592:182 593:249 594:254 595:254 596:254 597:254 598:254 599:204 600:128 601:43 602:43 603:15 605:23 606:43 607:8 619:159 620:254 621:254 622:216 623:114 624:109 625:5 626:5 627:3 647:138 648:184 649:89 650:31 #
-2.1735599739196094e-007 158:9 159:13 160:198 161:255 162:254 163:23 186:170 187:252 188:252 189:252 190:252 191:22 213:23 214:181 215:252 216:252 217:252 218:252 219:22 239:26 240:49 241:176 242:252 243:252 244:252 245:252 246:252 247:22 267:133 268:252 269:252 270:252 271:252 272:252 273:252 274:252 275:22 294:36 295:167 296:252 297:252 298:252 299:252 300:252 301:252 302:189 303:16 321:37 322:165 323:252 324:252 325:252 326:252 327:252 328:252 329:183 330:23 348:38 349:164 350:252 351:252 352:252 353:252 354:252 355:252 356:177 357:29 375:37 376:164 377:252 378:252 379:252 380:252 381:252 382:252 383:173 384:34 401:30 402:122 403:165 404:252 405:252 406:252 407:252 408:252 409:252 410:170 411:37 429:61 430:252 431:252 432:252 433:252 434:252 435:252 436:252 437:169 438:39 456:29 457:171 458:252 459:252 460:252 461:252 462:252 463:252 464:168 465:41 482:16 483:157 484:176 485:252 486:252 487:252 488:252 489:252 490:252 491:169 492:41 510:25 511:252 512:252 513:252 514:252 515:252 516:252 517:252 518:170 519:39 538:25 539:252 540:252 541:252 542:252 543:252 544:252 545:173 546:37 566:25 567:252 568:252 569:252 570:252 571:252 572:177 573:34 594:25 595:252 596:252 597:252 598:252 599:183 600:29 621:11 622:221 623:252 624:252 625:252 626:252 627:167 649:2 650:45 651:252 652:252 653:252 654:186 655:15 678:25 679:252 680:252 681:194 682:7 #
-4.1024517616793517e-008 130:76 131:254 132:140 157:19 158:202 159:253 160:92 185:104 186:253 187:218 188:12 213:166 214:253 215:158 216:16 240:88 241:249 242:239 243:22 268:138 269:253 270:170 295:54 296:234 297:249 298:56 323:180 324:253 325:152 345:11 350:56 351:254 352:248 353:63 373:60 378:188 379:254 380:180 405:18 406:229 407:255 408:156 432:9 433:201 434:253 435:254 436:135 459:4 460:168 461:253 462:253 463:254 464:176 486:6 487:134 488:253 489:253 490:253 491:234 492:51 514:16 515:239 516:253 517:253 518:253 519:49 542:100 543:239 544:253 545:251 546:95 569:34 570:239 571:253 572:253 573:193 597:48 598:253 599:253 600:240 601:32 625:76 626:235 627:253 628:106 653:89 654:235 655:190 656:3 #
1.4066464360454684e-007 97:86 98:170 99:255 100:226 101:114 124:86 125:255 126:255 127:226 128:255 129:255 130:86 152:29 153:198 154:255 155:86 156:57 157:255 158:226 181:86 182:198 185:170 186:255 187:86 213:86 214:255 215:170 241:114 242:255 243:86 269:170 270:255 271:29 297:226 298:255 324:114 325:255 326:141 346:114 347:170 348:170 349:86 351:29 352:255 353:255 372:29 373:226 374:255 375:255 376:255 377:255 378:226 379:198 380:255 381:86 400:226 401:255 402:86 403:29 404:86 405:170 406:255 407:255 408:255 427:170 428:170 434:255 435:255 436:255 437:170 454:86 455:255 456:29 461:86 462:255 463:141 464:226 465:255 466:86 482:226 483:198 489:226 490:255 492:29 493:255 494:255 495:141 509:86 510:255 511:114 515:29 516:198 517:255 518:86 521:57 522:255 523:255 524:198 525:86 526:86 527:86 537:86 538:255 539:29 543:226 544:255 545:170 550:29 551:198 552:255 553:255 554:255 555:255 565:57 566:255 567:57 570:170 571:255 572:170 580:29 581:86 582:86 594:226 595:226 596:170 597:255 598:255 599:170 622:57 623:255 624:170 625:114 626:29 #
-2.1735599739196094e-007 161:11 162:51 163:51 164:10 188:82 189:132 190:250 191:250 192:130 216:202 217:252 218:250 219:250 220:250 243:123 244:241 245:252 246:250 247:250 248:250 268:41 269:92 270:252 271:252 272:252 273:255 274:252 275:252 276:212 295:62 296:221 297:252 298:250 299:250 300:250 301:252 302:210 303:149 304:29 323:151 324:250 325:252 326:250 327:250 328:250 329:222 330:60 349:41 350:202 351:231 352:250 353:252 354:250 355:250 356:88 357:40 376:41 377:254 378:252 379:252 380:252 381:254 382:232 383:202 384:40 402:41 403:102 404:221 405:252 406:250 407:250 408:250 409:232 410:90 429:31 430:191 431:250 432:250 433:252 434:250 435:250 436:250 437:80 457:213 458:250 459:250 460:250 461:252 462:250 463:250 464:88 483:31 484:213 485:254 486:252 487:252 488:252 489:244 490:202 491:80 510:41 511:191 512:250 513:252 514:250 515:250 516:250 517:121 537:31 538:191 539:250 540:250 541:252 542:250 543:250 544:128 565:51 566:250 567:250 568:250 569:252 570:169 571:49 572:10 593:254 594:252 595:252 596:252 597:244 598:121 621:252 622:250 623:250 624:169 625:121 649:252 650:250 651:159 652:20 677:49 678:49 679:20 #
1.3586224135826532e-007 97:21 98:132 99:253 100:234 101:51 125:142 126:253 127:252 128:253 129:151 152:173 153:253 154:254 155:253 156:254 157:151 179:123 180:253 181:252 182:253 183:252 184:253 185:151 206:31 207:233 208:254 209:253 210:173 211:253 212:254 213:131 234:51 235:252 236:253 237:130 238:51 239:252 240:253 241:50 263:82 264:41 266:152 267:253 268:203 293:41 294:233 295:252 296:122 321:102 322:254 323:253 324:41 349:183 350:253 351:252 376:113 377:253 378:254 379:91 404:152 405:252 406:213 407:10 431:62 432:254 433:253 434:123 459:183 460:253 461:252 486:51 487:233 488:254 489:131 514:193 515:252 516:233 517:30 541:62 542:255 543:253 544:142 547:21 548:52 549:51 550:153 551:193 552:254 553:253 554:163 569:183 570:253 571:252 572:162 573:142 574:203 575:223 576:253 577:252 578:253 579:252 580:253 581:252 582:122 596:21 597:203 598:255 599:253 600:254 601:253 602:254 603:253 604:254 605:253 606:203 607:162 608:102 609:20 625:20 626:112 627:232 628:253 629:252 630:151 631:111 632:50 633:50 #
2.1735599739196094e-007 97:202 98:218 99:25 125:157 126:254 127:209 128:26 153:50 154:216 155:254 156:216 157:25 182:102 183:238 184:254 185:146 186:4 211:51 212:254 213:254 214:40 239:51 240:254 241:247 242:35 267:156 268:253 269:91 294:91 295:254 296:234 322:132 323:254 324:113 349:138 350:254 351:205 352:1 376:2 377:182 378:254 379:122 404:86 405:254 406:232 407:4 431:14 432:201 433:254 434:153 459:98 460:254 461:243 462:43 487:130 488:254 489:165 515:130 516:254 517:115 543:78 544:254 545:128 571:20 572:230 573:244 574:190 575:170 576:91 577:91 578:91 579:30 600:80 601:246 602:254 603:254 604:254 605:254 606:254 607:191 608:12 629:107 630:192 631:195 632:156 633:168 634:55 635:18 #
2.1735599739196094e-007 124:32 125:96 126:218 127:253 128:36 151:50 152:211 153:252 154:252 155:252 156:243 157:48 177:6 178:66 179:245 180:252 181:252 182:252 183:252 184:253 185:159 205:91 206:252 207:253 208:252 209:212 210:84 211:225 212:253 213:224 214:41 232:107 233:239 234:252 235:253 236:252 237:82 239:211 240:253 241:252 242:126 260:128 261:253 262:253 263:247 264:53 266:64 267:253 268:255 269:253 270:65 288:41 289:168 290:168 291:97 294:99 295:252 296:253 297:189 298:5 321:2 322:176 323:252 324:253 325:168 349:92 350:252 351:252 352:253 353:98 377:127 378:252 379:252 380:236 381:37 405:189 406:253 407:253 408:45 432:100 433:247 434:252 435:252 459:4 460:195 461:252 462:221 463:82 487:43 488:252 489:252 490:189 515:175 516:252 517:252 518:189 542:62 543:255 544:253 545:214 549:32 550:43 551:69 552:60 553:43 554:11 569:22 570:199 571:253 572:252 573:221 574:190 575:190 576:191 577:237 578:252 579:252 580:252 581:253 582:170 583:43 597:64 598:252 599:253 600:252 601:252 602:252 603:252 604:253 605:252 606:252 607:252 608:252 609:232 610:117 611:11 625:48 626:215 627:253 628:252 629:252 630:252 631:252 632:216 633:189 634:136 635:84 636:84 654:62 655:147 656:191 657:147 658:77 659:42 660:18 #
2.1735599739196094e-007 151:23 152:48 153:48 154:38 177:98 178:198 179:225 180:254 181:254 182:243 183:79 203:51 204:218 205:254 206:255 207:254 208:254 209:254 210:254 211:251 212:62 229:16 230:123 231:252 232:254 233:254 234:254 235:254 236:200 237:207 238:254 239:254 240:109 257:196 258:254 259:254 260:254 261:177 262:52 263:20 264:7 265:110 266:254 267:254 268:109 285:183 286:254 287:244 288:147 289:7 293:110 294:254 295:254 296:109 313:81 314:177 315:73 321:110 322:254 323:254 324:109 349:135 350:254 351:254 352:109 376:27 377:231 378:254 379:254 380:109 404:63 405:254 406:254 407:254 408:45 432:63 433:254 434:254 435:216 436:3 459:27 460:215 461:254 462:254 463:138 487:121 488:254 489:254 490:254 491:52 515:121 516:254 517:254 518:233 519:31 543:195 544:254 545:254 546:254 547:114 548:2 571:122 572:254 573:254 574:254 575:254 576:170 577:126 578:40 579:126 580:126 581:126 582:215 583:229 584:229 599:6 600:125 601:254 602:254 603:254 604:254 605:254 606:254 607:254 608:254 609:254 610:254 611:211 612:102 628:9 629:168 630:246 631:254 632:254 633:254 634:254 635:254 636:249 637:188 638:36 639:13 658:20 659:94 660:135 661:94 662:94 663:94 664:48 #
-2.1735599739196094e-007 72:102 73:239 74:57 92:18 93:16 98:6 99:114 100:244 101:254 102:137 120:154 121:214 122:92 123:92 124:92 125:159 126:200 127:254 128:254 129:254 130:124 148:227 149:254 150:254 151:254 152:254 153:254 154:244 155:149 156:80 157:254 158:148 176:45 177:179 178:239 179:231 180:230 181:163 182:73 184:41 185:246 186:148 206:25 207:3 212:27 213:242 214:148 240:62 241:251 242:148 269:229 270:69 297:207 298:150 325:236 326:190 353:236 354:143 381:236 382:53 409:236 410:53 437:236 438:53 465:236 466:53 493:236 494:53 510:1 511:40 512:102 513:56 514:5 515:4 516:5 517:4 519:4 520:35 521:243 522:54 538:117 539:254 540:254 541:254 542:254 543:220 544:254 545:225 546:164 547:238 548:254 549:254 550:217 551:136 552:119 553:164 554:164 555:70 566:222 567:254 568:254 569:254 570:254 571:254 572:254 573:254 574:254 575:254 576:254 577:254 578:254 579:254 580:255 581:254 582:254 583:221 594:138 595:193 596:159 597:158 598:158 599:194 600:194 601:158 602:86 603:158 604:158 605:158 606:158 607:95 608:99 609:101 610:158 611:101 #
-2.1735599739196094e-007 95:29 96:128 97:155 98:192 99:254 100:50 119:1 120:8 121:17 122:111 123:223 124:246 125:253 126:253 127:253 128:49 147:11 148:205 149:228 150:253 151:246 152:52 153:204 154:238 155:253 156:114 175:10 176:246 177:254 178:240 179:206 181:14 182:71 183:252 184:110 204:52 205:79 206:25 210:95 211:253 212:148 238:95 239:253 240:148 266:95 267:253 268:148 294:95 295:253 296:55 322:96 323:253 324:49 350:95 351:253 352:49 378:95 379:233 380:29 406:157 407:203 434:149 435:203 462:123 463:203 490:195 491:204 518:125 519:219 520:18 521:80 522:13 523:54 524:168 525:179 526:180 527:140 528:38 543:28 544:26 545:8 546:156 547:254 548:239 549:254 550:237 551:169 552:227 553:253 554:254 555:254 556:225 557:29 566:20 567:129 568:91 569:168 570:91 571:179 572:209 573:203 574:254 575:253 576:252 577:185 578:253 579:211 580:246 581:253 582:241 583:128 584:247 585:54 594:56 595:254 596:253 597:254 598:254 599:253 600:254 601:253 602:254 603:245 604:165 605:26 606:70 607:109 608:70 609:78 610:8 612:49 613:2 622:12 623:179 624:253 625:253 626:253 627:202 628:82 629:54 630:54 631:44 #
-2.1735599739196094e-007 96:71 97:209 98:178 99:46 123:17 124:211 125:253 126:253 127:195 151:118 152:253 153:253 154:253 155:213 156:12 178:85 179:228 180:253 181:253 182:253 183:254 184:39 206:156 207:253 208:253 209:253 210:253 211:254 212:39 232:47 233:194 234:255 235:254 236:213 237:54 238:254 239:255 240:39 260:136 261:253 262:254 263:183 264:12 265:40 266:253 267:254 268:39 288:57 289:174 290:152 291:12 293:40 294:253 295:254 296:39 321:55 322:253 323:254 324:39 349:100 350:253 351:208 352:9 377:40 378:254 379:196 405:47 406:253 407:195 433:136 434:253 435:165 461:136 462:253 463:188 489:136 490:253 491:195 517:235 518:254 519:209 520:36 521:59 522:59 523:59 542:5 543:20 544:20 545:235 546:253 547:254 548:238 549:253 550:253 551:253 552:193 553:18 570:59 571:253 572:253 573:253 574:253 575:254 576:253 577:253 578:253 579:253 580:254 581:39 598:59 599:253 600:253 601:253 602:253 603:254 604:250 605:213 606:235 607:253 608:207 609:18 626:14 627:185 628:185 629:155 630:230 631:193 632:68 634:32 635:58 636:23 #
-2.1735599739196094e-007 70:66 71:254 72:71 97:34 98:220 99:253 100:71 125:196 126:253 127:253 128:71 151:36 152:212 153:250 154:253 155:253 156:71 176:41 177:216 178:228 179:237 180:253 181:253 182:253 183:253 184:122 204:67 205:162 206:162 207:162 208:162 209:58 210:89 211:253 212:201 238:66 239:253 240:201 266:106 267:253 268:160 294:196 295:253 296:71 322:196 323:253 324:71 349:17 350:209 351:253 352:71 377:72 378:253 379:253 380:71 405:96 406:253 407:253 408:71 433:202 434:253 435:253 436:71 461:202 462:253 463:253 464:71 489:202 490:253 491:247 492:64 511:19 512:20 513:20 514:3 517:202 518:253 519:229 520:83 521:150 522:150 523:150 524:150 525:150 526:143 527:9 538:140 539:248 540:253 541:253 542:157 543:143 544:143 545:231 546:253 547:253 548:253 549:253 550:253 551:253 552:253 553:253 554:253 555:111 566:174 567:247 568:253 569:253 570:253 571:253 572:253 573:253 574:253 575:253 576:253 577:253 578:253 579:253 580:253 581:253 582:167 596:115 597:123 598:237 599:253 600:253 601:253 602:219 603:123 604:123 605:123 606:123 607:123 608:123 609:114 #
-2.1735599739196094e-007 99:44 100:152 101:21 126:29 127:243 128:229 129:222 130:65 152:61 153:100 154:166 155:253 156:252 157:252 158:187 175:19 176:71 177:71 178:61 179:233 180:248 181:252 182:204 183:253 184:252 185:252 186:121 203:166 204:248 205:252 206:252 207:252 208:252 209:235 210:197 211:205 212:252 213:252 214:49 230:29 231:228 232:206 233:164 234:164 235:112 236:55 237:38 239:253 240:252 241:174 242:3 259:18 260:10 267:253 268:252 269:153 294:68 295:253 296:252 297:86 322:111 323:253 324:252 325:44 350:14 351:253 352:223 353:25 379:255 380:216 381:19 407:253 408:186 435:253 436:95 461:41 462:228 463:253 464:77 489:27 490:231 491:253 492:77 518:220 519:253 520:115 523:20 524:50 525:46 541:3 542:12 543:108 544:12 545:56 546:172 547:253 548:247 549:188 550:179 551:212 552:220 553:189 554:101 567:92 568:95 569:137 570:252 571:252 572:252 573:222 574:240 575:253 576:252 577:252 578:252 579:252 580:179 581:238 582:124 595:74 596:250 597:252 598:252 599:252 600:252 601:252 602:252 603:253 604:252 605:188 606:175 607:104 608:14 609:57 623:13 624:100 625:204 626:252 627:151 628:190 629:109 630:128 631:143 632:66 633:6 #
-5.0396063654250849e-008 126:19 127:209 128:148 152:24 153:31 154:207 155:253 156:205 175:56 176:157 177:157 178:157 179:157 180:249 181:254 182:253 183:253 184:187 203:101 204:253 205:253 206:253 207:253 208:230 209:208 210:253 211:253 212:84 231:18 232:164 233:193 234:89 235:72 236:38 237:13 238:253 239:253 240:84 265:13 266:253 267:253 268:84 293:13 294:253 295:253 296:84 321:13 322:253 323:253 324:84 349:13 350:253 351:253 352:84 377:13 378:253 379:253 380:84 405:13 406:254 407:254 408:85 433:13 434:253 435:253 436:84 461:13 462:253 463:253 464:84 489:13 490:253 491:253 492:84 517:13 518:253 519:253 520:84 545:13 546:253 547:253 548:84 573:13 574:253 575:253 576:84 598:38 599:98 600:98 601:106 602:253 603:253 604:206 605:98 606:23 625:129 626:239 627:253 628:253 629:254 630:253 631:253 632:253 633:253 634:60 653:148 654:253 655:253 656:253 657:254 658:253 659:253 660:253 661:224 662:32 #
-2.1735599739196094e-007 182:91 183:224 184:128 185:3 209:58 210:249 211:254 212:253 213:39 236:40 237:223 238:253 239:254 240:253 241:105 263:7 264:183 265:253 266:181 267:181 268:253 269:117 291:182 292:254 293:213 294:6 295:176 296:254 297:117 318:109 319:254 320:235 321:81 323:175 324:253 325:117 345:68 346:244 347:249 348:117 351:175 352:253 353:117 372:13 373:226 374:253 375:162 379:248 380:253 381:117 400:172 401:254 402:248 407:255 408:254 409:39 428:195 429:253 430:79 434:13 435:254 436:253 437:39 456:90 457:75 458:3 462:79 463:254 464:220 465:6 490:79 491:254 492:214 518:79 519:255 520:214 546:79 547:254 548:202 574:79 575:254 576:136 602:79 603:254 604:136 630:109 631:255 632:107 658:156 659:254 660:58 686:222 687:254 688:58 714:162 715:248 716:41 #
2.1735599739196094e-007 95:2 96:168 97:171 98:48 123:4 124:155 125:252 126:252 127:162 128:20 152:8 153:108 154:252 155:253 156:120 181:4 182:59 183:253 184:250 185:100 211:110 212:252 213:218 214:7 239:8 240:192 241:252 242:49 268:176 269:252 270:116 296:176 297:252 298:10 323:25 324:233 325:252 326:10 351:177 352:252 353:252 354:59 376:88 377:225 378:253 379:255 380:253 381:253 382:253 383:157 384:34 385:3 403:66 404:223 405:252 406:252 407:253 408:235 409:186 410:192 411:252 412:252 413:151 414:43 429:22 430:137 431:249 432:192 433:183 434:252 435:253 436:95 438:4 439:44 440:129 441:32 456:2 457:121 458:252 459:179 460:51 461:140 462:252 463:169 464:37 484:95 485:252 486:194 487:8 488:117 489:252 490:228 512:171 513:233 514:59 515:48 516:231 517:225 518:45 539:5 540:243 541:197 542:43 543:232 544:250 545:120 567:100 568:252 569:207 570:165 571:252 572:141 595:100 596:252 597:252 598:252 599:177 600:26 623:13 624:195 625:252 626:166 627:12 #
-1.6019989802471152e-007 97:63 98:176 99:253 100:119 124:26 125:240 126:253 127:252 128:195 151:13 152:156 153:252 154:253 155:252 156:195 179:57 180:252 181:252 182:253 183:252 184:195 207:57 208:252 209:252 210:253 211:252 212:195 234:38 235:222 236:253 237:253 238:255 239:253 240:196 262:210 263:252 264:242 265:136 266:253 267:252 268:195 289:120 290:246 291:239 292:96 293:140 294:253 295:252 296:195 317:253 318:252 319:180 321:140 322:253 323:252 324:195 345:174 346:127 347:25 349:140 350:253 351:252 352:195 377:141 378:255 379:253 380:196 405:140 406:253 407:252 408:195 433:140 434:253 435:252 436:195 461:140 462:253 463:252 464:195 489:140 490:253 491:252 492:195 515:89 516:128 517:253 518:255 519:253 520:222 521:113 522:50 542:201 543:246 544:252 545:252 546:253 547:252 548:252 549:252 550:237 551:48 568:32 569:198 570:246 571:252 572:252 573:252 574:253 575:252 576:252 577:252 578:252 579:110 596:140 597:253 598:252 599:252 600:252 601:236 602:253 603:252 604:252 605:217 606:84 624:63 625:253 626:252 627:220 628:112 629:50 630:174 631:252 632:220 633:37 #
-2.1735599739196094e-007 133:29 134:25 160:131 161:232 162:226 187:175 188:251 189:252 190:244 214:11 215:206 216:252 217:252 218:121 242:219 243:252 244:252 245:199 246:7 268:11 269:175 270:254 271:253 272:223 273:35 295:8 296:127 297:252 298:253 299:252 300:91 323:171 324:252 325:252 326:253 327:122 328:2 350:84 351:246 352:252 353:252 354:172 355:21 377:62 378:216 379:252 380:252 381:208 404:36 405:255 406:253 407:253 408:199 409:18 430:8 431:112 432:242 433:253 434:252 435:157 436:21 457:52 458:181 459:252 460:252 461:253 462:78 463:11 484:82 485:232 486:252 487:252 488:252 489:172 490:21 511:45 512:253 513:252 514:252 515:226 516:103 536:15 537:52 538:174 539:253 540:254 541:253 542:161 543:35 564:164 565:252 566:252 567:252 568:239 569:89 570:5 591:145 592:247 593:252 594:252 595:235 596:17 619:145 620:189 621:180 622:84 623:14 #
-2.1735599739196094e-007 134:198 135:237 136:50 161:123 162:246 163:242 164:74 188:63 189:240 190:252 191:114 216:92 217:243 218:245 219:74 242:16 243:140 244:253 245:252 246:118 270:13 271:191 272:255 273:253 274:133 297:67 298:181 299:252 300:215 301:121 302:6 325:119 326:252 327:252 328:203 329:15 351:13 352:76 353:234 354:249 355:223 356:47 379:191 380:252 381:252 382:223 405:13 406:191 407:255 408:253 409:228 410:47 432:176 433:228 434:252 435:253 436:129 437:21 459:98 460:240 461:252 462:252 463:196 464:21 484:4 485:29 486:169 487:243 488:252 489:217 490:84 512:29 513:252 514:253 515:252 516:220 517:37 539:89 540:207 541:253 542:255 543:215 544:110 566:123 567:246 568:252 569:252 570:152 571:18 593:26 594:231 595:252 596:252 597:252 598:110 621:113 622:252 623:252 624:252 625:236 649:50 650:158 651:252 652:252 653:112 #
-2.1735599739196094e-007 130:3 131:185 132:219 133:93 134:70 135:2 158:37 159:218 160:252 161:252 162:252 163:132 164:6 185:23 186:221 187:252 188:252 189:252 190:238 191:20 213:60 214:252 215:252 216:252 217:252 218:75 240:47 241:225 242:252 243:252 244:252 245:162 246:10 267:4 268:175 269:252 270:252 271:252 272:197 273:12 295:53 296:252 297:252 298:252 299:232 300:62 323:237 324:252 325:252 326:252 327:89 350:161 351:253 352:252 353:252 354:156 355:7 377:53 378:246 379:253 380:252 381:235 382:44 403:5 404:117 405:242 406:253 407:255 408:177 409:46 430:19 431:158 432:252 433:252 434:252 435:223 436:46 456:7 457:123 458:230 459:252 460:252 461:252 462:235 483:31 484:145 485:252 486:252 487:252 488:252 489:231 490:49 509:3 510:129 511:225 512:252 513:252 514:252 515:252 516:154 517:41 537:3 538:170 539:252 540:252 541:252 542:252 543:228 544:25 566:145 567:252 568:252 569:252 570:228 571:54 593:11 594:237 595:252 596:252 597:229 598:54 621:7 622:201 623:252 624:252 625:140 649:70 650:252 651:177 652:109 653:4 #
-2.1735599739196094e-007 102:104 103:255 104:118 130:104 131:253 132:191 158:104 159:253 160:191 186:208 187:253 188:191 214:241 215:253 216:191 241:75 242:248 243:253 244:191 268:4 269:190 270:253 271:253 272:191 296:67 297:253 298:253 299:253 300:131 323:10 324:183 325:253 326:253 327:224 328:35 350:14 351:163 352:253 353:253 354:253 355:170 378:75 379:253 380:253 381:253 382:253 383:144 405:60 406:230 407:253 408:253 409:253 410:171 411:12 431:3 432:56 433:233 434:253 435:253 436:253 437:250 438:13 459:111 460:253 461:253 462:253 463:253 464:250 465:67 485:14 486:241 487:246 488:253 489:253 490:253 491:253 492:116 512:75 513:222 514:253 515:253 516:253 517:253 518:237 519:82 520:15 539:78 540:236 541:253 542:253 543:253 544:253 545:203 546:81 566:54 567:235 568:253 569:253 570:253 571:253 572:216 573:40 594:76 595:253 596:253 597:252 598:232 599:99 600:10 622:76 623:253 624:253 625:164 #
-2.1735599739196094e-007 134:43 135:101 136:101 161:35 162:223 163:253 164:225 189:162 190:253 191:253 192:99 216:117 217:251 218:253 219:144 220:3 242:3 243:110 244:244 245:252 246:148 247:11 270:101 271:253 272:253 273:160 296:42 297:221 298:248 299:253 300:232 301:61 323:36 324:218 325:253 326:253 327:239 328:75 350:41 351:216 352:253 353:253 354:245 355:67 377:41 378:225 379:253 380:253 381:232 382:72 403:8 404:136 405:216 406:253 407:251 408:230 409:73 431:160 432:253 433:253 434:253 435:230 457:11 458:154 459:251 460:253 461:253 462:142 463:27 484:63 485:182 486:253 487:253 488:251 489:157 490:8 512:163 513:253 514:253 515:253 516:151 538:78 539:216 540:252 541:253 542:219 543:46 544:10 565:163 566:234 567:253 568:250 569:222 570:42 593:254 594:253 595:253 596:160 621:255 622:243 623:199 624:33 649:100 650:81 #
2.1735599739196094e-007 123:32 124:106 125:190 126:255 127:163 128:16 150:28 151:205 152:254 153:254 154:254 155:254 156:190 178:205 179:251 180:152 181:36 182:88 183:236 184:251 185:62 206:218 207:235 211:146 212:254 213:143 234:218 235:242 236:26 239:128 240:254 241:163 262:14 263:20 267:70 268:255 269:228 295:37 296:254 297:247 323:83 324:254 325:241 351:128 352:254 353:163 379:128 380:254 381:163 407:128 408:255 409:163 435:212 436:250 437:96 462:41 463:236 464:190 490:145 491:254 492:138 518:210 519:241 520:35 545:131 546:255 547:159 570:48 571:62 572:145 573:248 574:254 575:245 576:197 577:114 578:40 595:14 596:96 597:147 598:249 599:254 600:254 601:244 602:217 603:222 604:254 605:254 606:218 607:9 622:54 623:219 624:254 625:254 626:254 627:252 628:170 629:39 631:8 632:100 633:235 634:184 635:4 650:38 651:195 652:222 653:254 654:175 655:87 #
2.1735599739196094e-007 95:25 96:133 97:241 98:231 99:85 122:82 123:246 124:248 125:217 126:254 127:168 149:23 150:238 151:181 152:27 153:23 154:241 155:245 156:31 177:37 178:224 179:12 182:231 183:254 184:59 206:19 210:184 211:255 212:130 238:231 239:254 240:130 266:184 267:254 268:130 294:231 295:254 296:98 321:12 322:236 323:254 324:54 349:55 350:254 351:233 352:5 377:62 378:254 379:201 405:131 406:254 407:154 432:9 433:211 434:254 435:87 460:36 461:254 462:226 463:3 488:166 489:254 490:165 515:68 516:243 517:241 518:29 542:49 543:216 544:254 545:82 546:32 547:86 548:71 549:76 550:81 551:8 552:8 553:8 567:28 568:60 569:143 570:243 571:254 572:254 573:233 574:254 575:254 576:254 577:254 578:254 579:254 580:254 581:252 582:185 583:34 594:78 595:248 596:254 597:254 598:254 599:254 600:254 601:226 602:200 603:193 604:123 605:123 606:123 607:123 608:123 609:123 610:90 611:9 622:101 623:233 624:172 625:100 626:34 627:23 628:23 629:11 #
2.1735599739196094e-007 96:13 97:102 98:243 99:138 124:32 125:254 126:254 127:231 152:14 153:183 154:254 155:231 181:84 182:247 183:254 184:128 210:233 211:254 212:225 213:47 238:147 239:254 240:254 241:185 266:52 267:229 268:254 269:185 295:178 296:254 297:185 323:178 324:254 325:185 351:178 352:254 353:185 379:178 380:254 381:170 406:38 407:215 408:254 409:30 434:121 435:254 436:145 437:4 461:9 462:234 463:254 464:130 489:132 490:254 491:244 492:71 516:159 517:237 518:254 519:193 542:5 543:60 544:230 545:255 546:200 547:28 570:139 571:254 572:254 573:254 574:22 575:67 577:67 578:7 579:60 598:139 599:254 600:254 601:254 602:213 603:237 604:209 605:237 606:176 607:109 626:139 627:254 628:254 629:255 630:254 631:254 632:179 633:100 634:33 #
2.1735599739196094e-007 64:109 65:235 66:47 92:108 93:254 94:219 95:149 96:8 120:63 121:231 122:254 123:254 124:115 149:70 150:254 151:254 152:223 153:40 177:17 178:191 179:254 180:254 181:188 206:100 207:247 208:254 209:244 210:83 235:215 236:254 237:254 238:98 263:65 264:254 265:254 266:240 267:7 291:50 292:254 293:254 294:254 295:109 319:50 320:254 321:254 322:254 323:172 347:16 348:177 349:254 350:254 351:174 352:3 376:86 377:245 378:254 379:254 380:145 405:231 406:254 407:254 408:246 433:231 434:254 435:254 436:246 460:23 461:235 462:255 463:254 464:113 487:26 488:200 489:254 490:254 491:254 492:82 514:29 515:203 516:254 517:254 518:254 519:254 520:233 521:159 522:53 541:20 542:200 543:254 544:254 545:254 546:254 547:254 548:254 549:254 550:244 551:149 552:149 553:149 554:116 569:24 570:216 571:254 572:254 573:254 574:254 575:254 576:254 577:254 578:254 579:254 580:254 581:254 582:251 583:100 598:44 599:90 600:90 601:90 602:90 603:90 604:95 605:254 606:254 607:254 608:254 609:254 610:217 611:38 #
2.1735599739196094e-007 123:8 124:80 125:203 126:184 127:8 150:87 151:218 152:254 153:230 154:250 155:128 177:44 178:205 179:205 180:52 181:15 182:142 183:252 184:47 204:39 205:231 206:180 207:33 210:3 211:254 212:54 232:163 233:213 234:10 239:255 240:54 260:228 261:97 267:254 268:54 288:10 289:4 294:3 295:254 296:54 322:87 323:254 324:54 350:154 351:250 352:42 378:201 379:231 405:109 406:254 407:101 433:145 434:254 435:40 460:9 461:221 462:164 488:60 489:254 490:95 515:2 516:177 517:221 518:45 519:39 520:27 521:5 543:93 544:254 545:254 546:254 547:254 548:242 549:220 550:164 551:128 552:28 570:42 571:244 572:254 573:254 574:249 575:247 576:246 577:248 578:254 579:254 580:227 581:62 597:17 598:211 599:254 600:198 601:107 602:27 605:19 606:74 607:123 608:164 609:148 625:119 626:254 627:168 628:13 653:169 654:216 655:13 #
-2.1735599739196094e-007 97:16 98:191 99:44 125:54 126:252 127:187 128:7 153:229 154:252 155:252 156:116 180:151 181:253 182:252 183:252 184:240 205:4 206:54 207:178 208:253 209:255 210:253 211:253 212:140 232:51 233:179 234:252 235:252 236:252 237:253 238:252 239:252 240:139 259:67 260:246 261:253 262:252 263:252 264:252 265:253 266:252 267:224 268:94 287:185 288:252 289:253 290:252 291:252 292:252 293:253 294:252 295:205 296:13 315:198 316:253 317:254 318:253 319:206 320:113 321:192 322:253 323:253 324:140 343:122 344:252 345:197 346:171 347:56 349:216 350:252 351:252 352:165 371:19 372:56 377:128 378:252 379:252 380:252 405:16 406:215 407:252 408:252 409:51 434:170 435:253 436:253 437:179 438:10 462:56 463:215 464:252 465:253 466:171 467:13 491:110 492:252 493:253 494:252 495:143 513:76 514:150 515:25 519:10 520:78 521:253 522:252 523:243 524:75 541:154 542:253 543:253 544:253 545:254 546:178 547:141 548:141 549:254 550:253 551:253 552:253 553:13 569:253 570:252 571:252 572:252 573:253 574:252 575:252 576:252 577:253 578:252 579:252 580:252 581:194 582:19 597:253 598:252 599:252 600:252 601:253 602:252 603:252 604:252 605:253 606:252 607:252 608:252 609:253 610:84 625:40 626:215 627:202 628:252 629:253 630:252 631:252 632:252 633:253 634:252 635:252 636:252 637:241 638:47 #
-2.1735599739196094e-007 97:155 98:201 124:45 125:236 126:252 127:95 152:153 153:252 154:252 155:247 156:67 180:184 181:252 182:252 183:253 184:92 207:95 208:246 209:252 210:252 211:253 212:92 234:34 235:253 236:253 237:253 238:253 239:255 240:92 260:17 261:99 262:212 263:252 264:252 265:252 266:252 267:253 268:92 288:176 289:252 290:253 291:252 292:252 293:252 294:252 295:253 296:92 316:207 317:252 318:253 319:252 320:252 321:210 322:252 323:253 324:92 344:113 345:242 346:253 347:252 348:136 349:97 350:252 351:253 352:143 373:53 374:116 375:42 378:168 379:255 380:253 381:69 406:116 407:253 408:252 409:141 434:84 435:253 436:252 437:183 463:253 464:252 465:240 466:37 491:201 492:252 493:252 494:150 519:22 520:245 521:253 522:211 523:13 542:110 543:140 544:47 545:47 546:47 547:47 548:178 549:252 550:252 551:117 569:85 570:253 571:252 572:252 573:252 574:252 575:253 576:252 577:252 578:252 579:252 580:174 581:57 597:116 598:253 599:252 600:252 601:252 602:252 603:253 604:252 605:252 606:252 607:252 608:253 609:206 625:116 626:253 627:252 628:252 629:252 630:252 631:253 632:252 633:252 634:252 635:252 636:253 637:206 #
-2.1735599739196094e-007 123:86 124:254 125:255 126:114 127:31 151:85 152:253 153:253 154:253 155:202 156:24 179:85 180:253 181:253 182:253 183:253 184:201 185:18 207:85 208:253 209:253 210:253 211:253 212:253 213:30 235:85 236:253 237:253 238:253 239:253 240:159 241:7 263:169 264:253 265:253 266:253 267:240 268:59 290:47 291:244 292:253 293:253 294:253 295:230 317:29 318:222 319:253 320:253 321:253 322:253 323:136 344:49 345:149 346:253 347:253 348:253 349:253 350:253 351:230 371:45 372:235 373:253 374:253 375:253 376:253 377:253 378:253 379:237 380:40 399:146 400:253 401:253 402:253 403:253 404:253 405:253 406:253 407:253 408:141 409:3 427:146 428:253 429:253 430:253 431:253 432:162 433:193 434:253 435:253 436:253 437:30 455:18 456:247 457:253 458:253 459:135 460:8 461:131 462:253 463:253 464:253 465:72 484:232 485:214 486:84 487:5 489:124 490:252 491:253 492:253 493:230 494:56 518:161 519:253 520:253 521:253 522:154 546:59 547:234 548:253 549:253 550:251 551:145 552:10 575:173 576:253 577:253 578:253 579:253 580:136 603:14 604:145 605:240 606:253 607:253 608:191 633:191 634:253 635:253 636:242 637:109 661:28 662:202 663:253 664:253 665:245 #
2.1735599739196094e-007 129:85 130:253 131:215 132:27 157:132 158:252 159:252 160:208 185:175 186:252 187:252 188:198 213:185 214:252 215:252 216:189 241:156 242:252 243:252 244:169 268:117 269:250 270:252 271:252 272:93 296:209 297:252 298:252 299:210 300:11 322:6 323:74 324:236 325:252 326:252 327:179 328:23 350:34 351:252 352:252 353:252 354:252 355:252 356:213 377:49 378:177 379:252 380:252 381:252 382:252 383:252 384:241 403:6 404:116 405:191 406:255 407:253 408:253 409:253 410:253 411:242 412:162 430:3 431:147 432:252 433:252 434:253 435:252 436:252 437:131 438:77 439:50 458:146 459:252 460:252 461:252 462:253 463:252 464:127 465:2 484:5 485:100 486:251 487:252 488:252 489:252 490:253 491:218 492:21 512:128 513:252 514:252 515:252 516:252 517:252 518:246 519:98 539:8 540:196 541:252 542:252 543:252 544:252 545:252 546:182 567:128 568:252 569:252 570:252 571:252 572:252 573:146 574:10 595:242 596:252 597:252 598:252 599:252 600:186 601:13 623:209 624:252 625:252 626:249 627:109 628:17 651:27 652:142 653:180 654:193 #
2.1735599739196094e-007 97:88 98:227 99:255 100:202 101:130 102:18 103:15 125:60 126:253 127:253 128:253 129:253 130:253 131:235 132:124 133:8 153:20 154:214 155:253 156:253 157:253 158:253 159:253 160:253 161:78 182:50 183:65 184:65 185:65 186:174 187:253 188:253 189:170 214:148 215:253 216:253 217:170 241:11 242:241 243:253 244:253 245:66 268:6 269:239 270:253 271:252 272:186 273:3 295:65 296:243 297:253 298:251 299:187 322:69 323:238 324:253 325:251 326:132 348:10 349:88 350:236 351:253 352:253 353:131 375:8 376:161 377:253 378:253 379:224 380:125 381:2 402:3 403:165 404:253 405:253 406:224 407:100 430:166 431:253 432:253 433:227 434:43 456:46 457:180 458:253 459:253 460:226 461:40 483:56 484:185 485:253 486:253 487:226 488:39 510:58 511:231 512:253 513:253 514:205 515:39 521:3 522:48 523:48 524:133 525:35 537:26 538:231 539:253 540:253 541:226 542:8 545:16 546:66 547:110 548:183 549:187 550:253 551:253 552:206 553:39 565:36 566:253 567:253 568:212 569:114 570:196 571:201 572:201 573:213 574:253 575:253 576:253 577:172 578:170 579:94 580:15 593:36 594:253 595:253 596:253 597:253 598:253 599:253 600:253 601:253 602:176 603:152 604:45 605:1 621:19 622:135 623:223 624:253 625:253 626:253 627:187 628:135 629:53 630:4 #
2.1735599739196094e-007 124:60 125:175 126:234 127:254 128:254 129:254 130:255 131:254 132:239 133:82 151:73 152:190 153:222 154:211 155:142 156:142 157:142 158:142 159:156 160:253 161:189 179:67 180:33 187:72 188:253 189:150 214:9 215:216 216:226 217:24 242:140 243:243 244:67 269:139 270:254 271:133 296:118 297:249 298:193 323:94 324:247 325:198 326:15 350:118 351:247 352:197 353:17 377:90 378:249 379:198 380:17 403:34 404:145 405:255 406:197 407:15 431:212 432:253 433:247 434:36 458:9 459:188 460:253 461:196 462:32 484:25 485:58 486:188 487:253 488:253 489:254 490:230 491:142 492:8 511:25 512:164 513:249 514:253 515:208 516:125 517:100 518:233 519:253 520:240 521:89 538:29 539:170 540:255 541:254 542:186 543:10 546:10 547:134 548:252 549:254 550:195 551:59 565:46 566:226 567:253 568:252 569:176 570:12 576:76 577:216 578:254 579:245 580:190 581:142 592:81 593:230 594:253 595:253 596:119 606:82 607:211 608:253 609:209 610:5 619:14 620:245 621:253 622:237 623:116 635:4 636:71 637:33 647:11 648:233 649:198 650:46 #
2.1735599739196094e-007 209:112 210:25 237:161 238:205 239:21 265:162 266:253 267:56 293:161 294:252 295:160 321:161 322:252 323:160 348:19 349:236 350:252 351:160 361:34 362:9 376:128 377:252 378:252 379:149 380:116 381:116 382:189 383:230 384:230 385:230 386:231 387:230 388:230 389:238 390:179 404:149 405:253 406:253 407:253 408:253 409:255 410:253 411:236 412:230 413:178 414:116 415:116 416:32 429:13 430:47 431:151 432:253 433:252 434:252 435:252 436:210 437:144 438:92 439:25 456:45 457:172 458:252 459:252 460:253 461:252 462:233 463:89 464:6 483:19 484:236 485:252 486:252 487:252 488:253 489:172 490:33 511:233 512:252 513:252 514:252 515:252 516:180 517:8 539:74 540:245 541:253 542:253 543:180 568:59 569:92 570:92 571:8 #
-2.1735599739196094e-007 129:67 130:184 131:254 132:34 156:63 157:186 158:253 159:253 160:205 161:30 184:91 185:253 186:253 187:253 188:215 189:30 212:91 213:253 214:253 215:253 216:185 217:30 239:7 240:103 241:253 242:253 243:239 244:29 266:4 267:60 268:253 269:253 270:253 271:206 272:18 294:34 295:218 296:253 297:253 298:253 299:150 322:68 323:252 324:253 325:253 326:132 327:4 350:192 351:253 352:253 353:247 354:14 377:147 378:244 379:253 380:253 381:171 403:97 404:52 405:195 406:253 407:253 408:233 409:66 429:113 430:165 431:210 432:253 433:253 434:253 435:253 436:136 456:30 457:212 458:253 459:250 460:253 461:253 462:253 463:226 464:38 485:35 486:179 487:127 488:250 489:253 490:219 491:105 513:2 514:11 515:180 516:253 517:253 518:222 519:37 541:12 542:92 543:253 544:253 545:253 546:139 569:50 570:198 571:253 572:253 573:231 574:36 597:98 598:253 599:253 600:253 601:190 602:26 625:87 626:253 627:253 628:253 629:102 653:16 654:198 655:253 656:253 657:27 #
-2.1735599739196094e-007 130:201 131:253 132:80 147:91 148:23 157:132 158:249 159:229 160:46 175:134 176:104 184:85 185:248 186:252 187:79 212:206 213:252 214:231 215:45 239:85 240:247 241:252 242:185 267:205 268:252 269:235 270:76 295:240 296:252 297:151 323:240 324:242 325:35 350:147 351:247 352:158 378:253 379:252 380:158 404:64 405:134 406:255 407:253 408:26 432:69 433:183 434:253 435:150 436:2 458:15 459:178 460:241 461:252 462:253 463:145 486:41 487:252 488:252 489:252 490:253 491:33 514:19 515:203 516:252 517:252 518:123 519:3 542:138 543:252 544:252 545:252 570:173 571:252 572:252 573:231 597:34 598:223 599:252 600:250 601:107 625:51 626:248 627:252 628:231 654:103 655:252 656:106 #
1.1918016466736603e-007 175:71 176:156 177:156 178:156 179:156 180:186 181:254 182:254 183:255 184:171 185:156 186:95 203:175 204:253 205:253 206:254 207:253 208:253 209:242 210:248 211:241 212:250 213:253 214:247 215:177 231:54 232:167 233:174 234:193 235:253 236:130 237:36 238:60 239:30 240:66 241:131 242:253 243:253 262:5 263:57 264:6 269:94 270:253 271:253 296:53 297:235 298:253 299:139 323:14 324:186 325:254 326:214 351:149 352:253 353:247 354:85 378:135 379:254 380:247 381:84 405:37 406:226 407:254 408:128 433:212 434:253 435:171 436:9 460:138 461:254 462:231 487:25 488:241 489:250 490:68 515:147 516:253 517:146 542:32 543:235 544:253 545:26 570:59 571:253 572:222 573:12 598:120 599:254 600:152 626:156 627:253 628:78 654:156 655:253 656:108 664:19 665:79 666:24 682:104 683:253 684:247 685:143 686:100 687:77 688:85 689:136 690:151 691:234 692:239 693:212 694:36 710:14 711:103 712:223 713:253 714:253 715:254 716:253 717:253 718:253 719:215 720:96 721:9 #
-2.1735599739196094e-007 129:35 130:254 131:19 156:34 157:182 158:254 159:54 184:59 185:254 186:254 187:18 212:66 213:254 214:231 215:13 240:149 241:254 242:126 267:55 268:249 269:246 270:16 295:98 296:254 297:213 322:57 323:251 324:245 325:82 350:105 351:254 352:205 377:11 378:213 379:254 380:87 405:147 406:255 407:189 432:44 433:236 434:254 435:91 460:224 461:254 462:215 487:121 488:251 489:254 490:97 515:179 516:254 517:175 518:5 542:16 543:240 544:249 545:87 570:86 571:254 572:165 598:204 599:254 600:103 626:207 627:254 628:79 654:172 655:254 656:128 #
-1.8641552342570143e-007 130:32 131:229 132:153 157:7 158:150 159:252 160:252 185:29 186:252 187:252 188:164 213:128 214:252 215:252 216:90 240:13 241:204 242:253 243:106 268:113 269:253 270:252 271:56 295:29 296:210 297:253 298:208 299:13 323:134 324:252 325:241 326:59 350:45 351:229 352:253 353:163 377:19 378:225 379:252 380:227 381:38 405:117 406:252 407:252 408:52 432:101 433:241 434:252 435:127 436:3 459:60 460:241 461:255 462:209 463:25 486:13 487:209 488:252 489:234 490:28 513:23 514:209 515:252 516:252 517:100 541:79 542:252 543:252 544:202 569:154 570:253 571:253 572:128 596:26 597:253 598:252 599:233 600:22 624:113 625:253 626:252 627:80 652:113 653:253 654:227 655:31 #
-2.1735599739196094e-007 130:64 131:243 132:42 147:17 148:5 158:137 159:210 175:68 176:16 185:68 186:247 187:116 213:135 214:253 215:116 241:155 242:253 243:11 268:133 269:212 270:118 295:9 296:197 297:194 298:8 323:47 324:253 325:161 350:9 351:175 352:253 353:119 378:66 379:212 380:222 381:25 405:11 406:150 407:254 408:122 433:116 434:254 435:253 436:69 461:147 462:254 463:219 464:19 488:77 489:239 490:246 491:79 515:32 516:229 517:253 518:178 542:5 543:139 544:254 545:255 546:106 570:47 571:253 572:253 573:179 598:79 599:253 600:228 601:48 626:162 627:253 628:119 653:11 654:204 655:222 656:25 #
2.1735599739196094e-007 207:22 208:117 209:169 210:169 211:98 233:45 234:107 235:199 236:252 237:252 238:252 239:247 240:53 258:15 259:96 260:148 261:236 262:254 263:253 264:253 265:253 266:253 267:254 268:168 285:112 286:211 287:252 288:252 289:252 290:253 291:252 292:252 293:252 294:252 295:253 296:168 313:245 314:252 315:252 316:252 317:252 318:253 319:252 320:199 321:252 322:252 323:253 324:168 341:253 342:252 343:252 344:252 345:252 346:253 347:231 348:72 349:252 350:252 351:253 352:168 369:122 370:252 371:199 372:77 373:42 374:104 375:54 376:22 377:252 378:252 379:253 380:168 404:84 405:253 406:253 407:255 408:151 432:206 433:252 434:252 435:253 436:63 459:78 460:251 461:252 462:252 463:253 464:237 465:144 466:232 467:232 468:171 469:171 470:127 471:127 472:30 487:85 488:252 489:252 490:252 491:253 492:252 493:252 494:252 495:252 496:253 497:252 498:252 499:252 500:217 515:128 516:252 517:252 518:252 519:253 520:252 521:252 522:252 523:252 524:253 525:252 526:252 527:252 528:208 543:85 544:253 545:253 546:253 547:230 548:211 549:211 550:185 551:106 552:168 553:211 554:211 555:211 556:35 571:21 572:159 573:168 574:80 575:27 #
2.1325558483969122e-007 124:22 126:75 127:195 128:195 129:46 150:2 151:44 152:222 153:210 154:254 155:254 156:254 157:222 178:31 179:254 180:228 181:128 182:90 183:130 184:230 185:239 205:36 206:213 207:161 208:35 212:82 213:239 233:105 234:127 239:2 240:188 241:239 260:3 261:117 262:3 267:57 268:254 269:176 288:94 289:179 295:178 296:211 297:11 316:94 317:42 322:103 323:251 324:125 349:36 350:229 351:172 376:8 377:166 378:245 379:42 404:82 405:254 406:124 432:203 433:232 434:41 459:6 460:241 461:75 487:86 488:254 489:60 515:134 516:219 517:7 542:22 543:234 544:227 545:19 570:15 571:218 572:254 573:126 574:15 599:150 600:254 601:254 602:217 603:114 604:118 605:184 606:157 607:190 608:56 627:4 628:166 629:254 630:254 631:209 632:214 633:254 634:254 635:183 636:142 637:8 656:9 657:131 658:213 659:254 660:231 661:148 662:55 663:28 #
-9.1886928868136016e-008 128:31 129:253 130:205 155:7 156:206 157:252 158:208 159:7 183:13 184:252 185:252 186:252 187:72 211:36 212:252 213:252 214:252 215:72 239:161 240:252 241:252 242:217 243:21 267:253 268:252 269:252 270:204 295:213 296:252 297:252 298:204 322:47 323:179 324:252 325:252 326:157 350:230 351:253 352:252 353:167 354:8 377:105 378:252 379:253 380:252 381:96 404:5 405:231 406:253 407:255 408:252 409:92 432:109 433:252 434:252 435:253 436:216 459:53 460:239 461:252 462:252 463:246 464:41 487:165 488:252 489:252 490:252 491:160 514:81 515:239 516:252 517:252 518:223 519:35 542:193 543:252 544:252 545:252 546:131 570:193 571:252 572:252 573:216 574:30 598:193 599:252 600:252 601:98 626:193 627:252 628:252 629:23 654:101 655:230 656:206 657:12 #
-2.1735599739196094e-007 116:34 117:254 118:254 119:254 120:110 121:8 144:34 145:252 146:252 147:252 148:252 149:106 150:64 172:21 173:179 174:252 175:252 176:252 177:252 178:246 179:83 201:32 202:172 203:252 204:252 205:252 206:252 207:231 208:93 230:35 231:174 232:252 233:252 234:252 235:252 236:226 237:94 259:29 260:184 261:252 262:252 263:252 264:252 265:141 288:14 289:195 290:251 291:252 292:252 293:244 294:107 295:4 318:232 319:252 320:252 321:252 322:252 323:107 324:8 346:164 347:252 348:252 349:252 350:252 351:252 352:43 374:12 375:252 376:252 377:252 378:252 379:252 380:134 381:4 402:5 403:133 404:252 405:252 406:252 407:252 408:252 409:135 431:14 432:129 433:252 434:252 435:252 436:252 437:230 460:13 461:134 462:252 463:252 464:252 465:249 466:164 489:102 490:243 491:252 492:252 493:252 494:202 495:15 497:14 498:23 499:3 518:113 519:236 520:252 521:252 522:252 523:183 524:56 525:176 526:252 527:32 547:116 548:237 549:252 550:252 551:252 552:252 553:252 554:252 555:32 576:110 577:248 578:252 579:252 580:252 581:252 582:252 583:32 605:108 606:252 607:252 608:252 609:252 610:252 611:32 633:6 634:106 635:252 636:252 637:252 638:252 639:32 662:7 663:32 664:138 665:252 666:252 667:32 #
-2.1735599739196094e-007 124:18 125:192 126:241 127:114 151:20 152:190 153:253 154:253 155:120 178:100 179:222 180:253 181:253 182:253 183:120 204:25 205:180 206:242 207:253 208:207 209:193 210:253 211:120 230:26 231:111 232:212 233:253 234:239 235:171 236:21 237:127 238:253 239:120 258:213 259:253 260:253 261:219 262:86 265:161 266:253 267:120 286:228 287:226 288:177 289:15 292:5 293:170 294:253 295:120 320:41 321:253 322:253 323:120 348:19 349:204 350:253 351:120 377:161 378:254 379:121 405:161 406:253 407:120 433:161 434:253 435:120 461:161 462:253 463:162 464:81 465:81 466:81 467:81 468:81 469:81 470:68 486:54 487:68 488:89 489:234 490:253 491:253 492:254 493:253 494:253 495:253 496:253 497:253 498:245 499:187 500:64 510:26 511:54 512:104 513:187 514:240 515:253 516:253 517:253 518:253 519:253 520:254 521:230 522:199 523:199 524:199 525:199 526:236 527:253 528:250 529:117 538:213 539:253 540:253 541:253 542:253 543:253 544:225 545:199 546:80 547:80 548:80 549:46 554:55 555:94 556:213 557:142 566:255 567:228 568:226 569:226 570:121 571:93 572:29 594:107 595:6 #
